<?xml version="1.0" encoding="ISO-8859-1"?>
<smile version="1.0" id="Network1" numsamples="1000" discsamples="10000">
	<properties>
		<property id="DIAG_alphaValue">0.00000000</property>
		<property id="DIAG_maxAlphaValue">10.00000000</property>
	</properties>
	<nodes>
		<cpt id="larynx_tumor_type__patient">
			<state id="no_malignancy" />
			<state id="SIN_I" />
			<state id="SIN_II" />
			<state id="SIN_III" />
			<state id="SCC_in_situ" />
			<state id="SCC" />
			<state id="mucosal_malignant_melanoma" />
			<state id="giant_cell_carcinoma" />
			<state id="mucoepidermoid_carcinoma" />
			<state id="chondrosarcoma" />
			<state id="adenoid_cystic_carcinoma" />
			<state id="angiosarcoma" />
			<state id="leiomyosarcoma" />
			<state id="metastatic_tumor" />
			<state id="malignant_granular_cell_tumor" />
			<state id="rhabdomyosarcoma" />
			<state id="verrucous_carcinoma" />
			<state id="plasmocytoma" />
			<state id="lymphoma" />
			<state id="neuroendocrine_carcinoma" />
			<state id="osteosarcoma" />
			<state id="liposarcoma" />
			<state id="secondary_papillay_thyroid_carcinoma" />
			<state id="malignant_fibrous_histiocytoma" />
			<state id="lymphoepithelial_carcinoma" />
			<state id="fibrosarcoma" />
			<state id="spindle_cell_carcinoma" />
			<probabilities>0.01675977653631285 0.04469273743016759 0.05586592178770949 0.1452513966480447 0.1005586592178771 0.5027932960893855 0.005586592178770949 0.005586592178770949 0.005586592178770949 0.0111731843575419 0.0111731843575419 0.005586592178770949 0.005586592178770949 0.0111731843575419 0.005586592178770949 0.005586592178770949 0.005586592178770949 0.005586592178770949 0.005586592178770949 0.005586592178770949 0.005586592178770949 0.005586592178770949 0.005586592178770949 0.005586592178770949 0.005586592178770949 0.005586592178770949 0.005586592178770949</probabilities>
			<property id="unobservable">true</property>
		</cpt>
		<cpt id="larynx_tumor_type_clinical__patient">
			<state id="no_malinancy" />
			<state id="SIN_I" />
			<state id="SIN_II" />
			<state id="SIN__III" />
			<state id="SCC_in_situ" />
			<state id="SCC" />
			<state id="mucosal_malignant_melanoma" />
			<state id="giant_cell_carcinoma" />
			<state id="spindle_cell_carcinoma" />
			<state id="mucoepidermoid_carcinoma" />
			<state id="chondrosarcoma" />
			<state id="adenoid_cystic_carcinoma" />
			<state id="angiosarcoma" />
			<state id="leiomyosarcoma" />
			<state id="metastatic_tumor" />
			<state id="malignant_granular_cell_tumor" />
			<state id="plasmocytoma" />
			<state id="rhabdomyosarcoma" />
			<state id="verrucous_carcinoma" />
			<state id="lymphoma" />
			<state id="neuroendocrine_carcinoma" />
			<state id="osteosarcoma" />
			<state id="liposarcoma" />
			<state id="secondary_papillay_thyroid_carcinoma" />
			<state id="malignant_fibrous_histiocytoma" />
			<state id="lymphoepithelial_carcinoma" />
			<state id="fibrosarcoma" />
			<state id="unknown" />
			<parents>larynx_tumor_type__patient</parents>
			<probabilities>0.9882812499948525 0.0004340277790776004 0.0004340277790776004 0.0004340277790776004 0.0004340277790776004 0.0004340277777755176 0.0004340277777755176 0.0004340277777755176 0.0004340277777755176 0.0004340277777755176 0.0004340277777755176 0.0004340277777755176 0.0004340277777755176 0.0004340277777755176 0.0004340277777755176 0.0004340277777755176 0.0004340277777755176 0.0004340277777755176 0.0004340277777755176 0.0004340277777755176 0.0004340277777755176 0.0004340277777755176 0.0004340277777755176 0.0004340277777755176 0.0004340277777755176 0.0004340277777755176 0.0004340277777755176 0.0004340277777744594 0.0003703703700411513 0.9899999999999993 0.0003703703730041143 0.0003703703730041143 0.0003703703730041143 0.0003703703700411513 0.0003703703700411513 0.0003703703700411513 0.0003703703700411513 0.0003703703700411513 0.0003703703700411513 0.0003703703700411513 0.0003703703700411513 0.0003703703700411513 0.0003703703700411513 0.0003703703700411513 0.0003703703700411513 0.0003703703700411513 0.0003703703700411513 0.0003703703700411513 0.0003703703700411513 0.0003703703700411513 0.0003703703700411513 0.0003703703700411513 0.0003703703700411513 0.0003703703700411513 0.0003703703700411513 0.0003703703700412842 0.0003703703700411513 0.00037037037 0.99 0.0003703703730041143 0.0003703703730041143 0.0003703703700411513 0.0003703703700411513 0.0003703703700411513 0.0003703703700411513 0.0003703703700411513 0.0003703703700411513 0.0003703703700411513 0.0003703703700411513 0.0003703703700411513 0.0003703703700411513 0.0003703703700411513 0.0003703703700411513 0.0003703703700411513 0.0003703703700411513 0.0003703703700411513 0.0003703703700411513 0.0003703703700411513 0.0003703703700411513 0.0003703703700411513 0.0003703703700411513 0.0003703703700411513 0.0003703703700411513 0.0003703703700412842 0.0003703703700411513 0.00037037037 0.0003703703730041143 0.99 0.0003703703730041143 0.0003703703700411513 0.0003703703700411513 0.0003703703700411513 0.0003703703700411513 0.0003703703700411513 0.0003703703700411513 0.0003703703700411513 0.0003703703700411513 0.0003703703700411513 0.0003703703700411513 0.0003703703700411513 0.0003703703700411513 0.0003703703700411513 0.0003703703700411513 0.0003703703700411513 0.0003703703700411513 0.0003703703700411513 0.0003703703700411513 0.0003703703700411513 0.0003703703700411513 0.0003703703700411513 0.0003703703700411513 0.0003703703700412842 0.0003703703700411513 0.00037037037 0.0003703703730041143 0.0003703703730041143 0.99 0.0003703703700411513 0.0003703703700411513 0.0003703703700411513 0.0003703703700411513 0.0003703703700411513 0.0003703703700411513 0.0003703703700411513 0.0003703703700411513 0.0003703703700411513 0.0003703703700411513 0.0003703703700411513 0.0003703703700411513 0.0003703703700411513 0.0003703703700411513 0.0003703703700411513 0.0003703703700411513 0.0003703703700411513 0.0003703703700411513 0.0003703703700411513 0.0003703703700411513 0.0003703703700411513 0.0003703703700411513 0.0003703703700412842 0.0003703703700411513 0.00037037037 0.0003703703730041143 0.0003703703730041143 0.0003703703730041143 0.99 0.0003703703700411513 0.0003703703700411513 0.0003703703700411513 0.0003703703700411513 0.0003703703700411513 0.0003703703700411513 0.0003703703700411513 0.0003703703700411513 0.0003703703700411513 0.0003703703700411513 0.0003703703700411513 0.0003703703700411513 0.0003703703700411513 0.0003703703700411513 0.0003703703700411513 0.0003703703700411513 0.0003703703700411513 0.0003703703700411513 0.0003703703700411513 0.0003703703700411513 0.0003703703700411513 0.0003703703700412842 0.0003703703700411513 0.00037037037 0.0003703703730041143 0.0003703703730041143 0.0003703703730041143 0.0003703703700411513 0.99 0.0003703703700411513 0.0003703703700411513 0.0003703703700411513 0.0003703703700411513 0.0003703703700411513 0.0003703703700411513 0.0003703703700411513 0.0003703703700411513 0.0003703703700411513 0.0003703703700411513 0.0003703703700411513 0.0003703703700411513 0.0003703703700411513 0.0003703703700411513 0.0003703703700411513 0.0003703703700411513 0.0003703703700411513 0.0003703703700411513 0.0003703703700411513 0.0003703703700411513 0.0003703703700412842 0.0003703703700411513 0.00037037037 0.0003703703730041143 0.0003703703730041143 0.0003703703730041143 0.0003703703700411513 0.0003703703700411513 0.99 0.0003703703700411513 0.0003703703700411513 0.0003703703700411513 0.0003703703700411513 0.0003703703700411513 0.0003703703700411513 0.0003703703700411513 0.0003703703700411513 0.0003703703700411513 0.0003703703700411513 0.0003703703700411513 0.0003703703700411513 0.0003703703700411513 0.0003703703700411513 0.0003703703700411513 0.0003703703700411513 0.0003703703700411513 0.0003703703700411513 0.0003703703700411513 0.0003703703700412842 0.0003703703700411513 0.00037037037 0.0003703703730041143 0.0003703703730041143 0.0003703703730041143 0.0003703703700411513 0.0003703703700411513 0.0003703703700411513 0.0003703703700411513 0.99 0.0003703703700411513 0.0003703703700411513 0.0003703703700411513 0.0003703703700411513 0.0003703703700411513 0.0003703703700411513 0.0003703703700411513 0.0003703703700411513 0.0003703703700411513 0.0003703703700411513 0.0003703703700411513 0.0003703703700411513 0.0003703703700411513 0.0003703703700411513 0.0003703703700411513 0.0003703703700411513 0.0003703703700411513 0.0003703703700412842 0.0003703703700411513 0.00037037037 0.0003703703730041143 0.0003703703730041143 0.0003703703730041143 0.0003703703700411513 0.0003703703700411513 0.0003703703700411513 0.0003703703700411513 0.0003703703700411513 0.99 0.0003703703700411513 0.0003703703700411513 0.0003703703700411513 0.0003703703700411513 0.0003703703700411513 0.0003703703700411513 0.0003703703700411513 0.0003703703700411513 0.0003703703700411513 0.0003703703700411513 0.0003703703700411513 0.0003703703700411513 0.0003703703700411513 0.0003703703700411513 0.0003703703700411513 0.0003703703700411513 0.0003703703700412842 0.0003703703700411513 0.00037037037 0.0003703703730041143 0.0003703703730041143 0.0003703703730041143 0.0003703703700411513 0.0003703703700411513 0.0003703703700411513 0.0003703703700411513 0.0003703703700411513 0.0003703703700411513 0.99 0.0003703703700411513 0.0003703703700411513 0.0003703703700411513 0.0003703703700411513 0.0003703703700411513 0.0003703703700411513 0.0003703703700411513 0.0003703703700411513 0.0003703703700411513 0.0003703703700411513 0.0003703703700411513 0.0003703703700411513 0.0003703703700411513 0.0003703703700411513 0.0003703703700411513 0.0003703703700412842 0.0003703703700411513 0.00037037037 0.0003703703730041143 0.0003703703730041143 0.0003703703730041143 0.0003703703700411513 0.0003703703700411513 0.0003703703700411513 0.0003703703700411513 0.0003703703700411513 0.0003703703700411513 0.0003703703700411513 0.99 0.0003703703700411513 0.0003703703700411513 0.0003703703700411513 0.0003703703700411513 0.0003703703700411513 0.0003703703700411513 0.0003703703700411513 0.0003703703700411513 0.0003703703700411513 0.0003703703700411513 0.0003703703700411513 0.0003703703700411513 0.0003703703700411513 0.0003703703700411513 0.0003703703700412842 0.0003703703700411513 0.00037037037 0.0003703703730041143 0.0003703703730041143 0.0003703703730041143 0.0003703703700411513 0.0003703703700411513 0.0003703703700411513 0.0003703703700411513 0.0003703703700411513 0.0003703703700411513 0.0003703703700411513 0.0003703703700411513 0.99 0.0003703703700411513 0.0003703703700411513 0.0003703703700411513 0.0003703703700411513 0.0003703703700411513 0.0003703703700411513 0.0003703703700411513 0.0003703703700411513 0.0003703703700411513 0.0003703703700411513 0.0003703703700411513 0.0003703703700411513 0.0003703703700411513 0.0003703703700412842 0.0003703703700411513 0.00037037037 0.0003703703730041143 0.0003703703730041143 0.0003703703730041143 0.0003703703700411513 0.0003703703700411513 0.0003703703700411513 0.0003703703700411513 0.0003703703700411513 0.0003703703700411513 0.0003703703700411513 0.0003703703700411513 0.0003703703700411513 0.99 0.0003703703700411513 0.0003703703700411513 0.0003703703700411513 0.0003703703700411513 0.0003703703700411513 0.0003703703700411513 0.0003703703700411513 0.0003703703700411513 0.0003703703700411513 0.0003703703700411513 0.0003703703700411513 0.0003703703700411513 0.0003703703700412842 0.0003703703700411513 0.00037037037 0.0003703703730041143 0.0003703703730041143 0.0003703703730041143 0.0003703703700411513 0.0003703703700411513 0.0003703703700411513 0.0003703703700411513 0.0003703703700411513 0.0003703703700411513 0.0003703703700411513 0.0003703703700411513 0.0003703703700411513 0.0003703703700411513 0.99 0.0003703703700411513 0.0003703703700411513 0.0003703703700411513 0.0003703703700411513 0.0003703703700411513 0.0003703703700411513 0.0003703703700411513 0.0003703703700411513 0.0003703703700411513 0.0003703703700411513 0.0003703703700411513 0.0003703703700412842 0.0003703703700411513 0.00037037037 0.0003703703730041143 0.0003703703730041143 0.0003703703730041143 0.0003703703700411513 0.0003703703700411513 0.0003703703700411513 0.0003703703700411513 0.0003703703700411513 0.0003703703700411513 0.0003703703700411513 0.0003703703700411513 0.0003703703700411513 0.0003703703700411513 0.0003703703700411513 0.00037037037 0.99 0.0003703703700411513 0.0003703703700411513 0.0003703703700411513 0.0003703703700411513 0.0003703703700411513 0.0003703703700411513 0.0003703703700411513 0.0003703703700411513 0.0003703703700411513 0.0003703703700412842 0.0003703703700411513 0.00037037037 0.0003703703730041143 0.0003703703730041143 0.0003703703730041143 0.0003703703700411513 0.0003703703700411513 0.0003703703700411513 0.0003703703700411513 0.0003703703700411513 0.0003703703700411513 0.0003703703700411513 0.0003703703700411513 0.0003703703700411513 0.0003703703700411513 0.0003703703700411513 0.0003703703700411513 0.0003703703700411513 0.99 0.0003703703700411513 0.0003703703700411513 0.0003703703700411513 0.0003703703700411513 0.0003703703700411513 0.0003703703700411513 0.0003703703700411513 0.0003703703700411513 0.0003703703700412842 0.0003703703700411513 0.00037037037 0.0003703703730041143 0.0003703703730041143 0.0003703703730041143 0.0003703703700411513 0.0003703703700411513 0.0003703703700411513 0.0003703703700411513 0.0003703703700411513 0.0003703703700411513 0.0003703703700411513 0.0003703703700411513 0.0003703703700411513 0.0003703703700411513 0.0003703703700411513 0.99 0.0003703703700411513 0.0003703703700411513 0.0003703703700411513 0.0003703703700411513 0.0003703703700411513 0.0003703703700411513 0.0003703703700411513 0.0003703703700411513 0.0003703703700411513 0.0003703703700411513 0.0003703703700412842 0.0003703703700411513 0.00037037037 0.0003703703730041143 0.0003703703730041143 0.0003703703730041143 0.0003703703700411513 0.0003703703700411513 0.0003703703700411513 0.0003703703700411513 0.0003703703700411513 0.0003703703700411513 0.0003703703700411513 0.0003703703700411513 0.0003703703700411513 0.0003703703700411513 0.0003703703700411513 0.0003703703700411513 0.0003703703700411513 0.0003703703700411513 0.99 0.0003703703700411513 0.0003703703700411513 0.0003703703700411513 0.0003703703700411513 0.0003703703700411513 0.0003703703700411513 0.0003703703700411513 0.0003703703700412842 0.0003703703700411513 0.00037037037 0.0003703703730041143 0.0003703703730041143 0.0003703703730041143 0.0003703703700411513 0.0003703703700411513 0.0003703703700411513 0.0003703703700411513 0.0003703703700411513 0.0003703703700411513 0.0003703703700411513 0.0003703703700411513 0.0003703703700411513 0.0003703703700411513 0.0003703703700411513 0.0003703703700411513 0.0003703703700411513 0.0003703703700411513 0.0003703703700411513 0.99 0.0003703703700411513 0.0003703703700411513 0.0003703703700411513 0.0003703703700411513 0.0003703703700411513 0.0003703703700411513 0.0003703703700412842 0.0003703703700411513 0.00037037037 0.0003703703730041143 0.0003703703730041143 0.0003703703730041143 0.0003703703700411513 0.0003703703700411513 0.0003703703700411513 0.0003703703700411513 0.0003703703700411513 0.0003703703700411513 0.0003703703700411513 0.0003703703700411513 0.0003703703700411513 0.0003703703700411513 0.0003703703700411513 0.0003703703700411513 0.0003703703700411513 0.0003703703700411513 0.0003703703700411513 0.0003703703700411513 0.99 0.0003703703700411513 0.0003703703700411513 0.0003703703700411513 0.0003703703700411513 0.0003703703700411513 0.0003703703700412842 0.0003703703700411513 0.00037037037 0.0003703703730041143 0.0003703703730041143 0.0003703703730041143 0.0003703703700411513 0.0003703703700411513 0.0003703703700411513 0.0003703703700411513 0.0003703703700411513 0.0003703703700411513 0.0003703703700411513 0.0003703703700411513 0.0003703703700411513 0.0003703703700411513 0.0003703703700411513 0.0003703703700411513 0.0003703703700411513 0.0003703703700411513 0.0003703703700411513 0.0003703703700411513 0.0003703703700411513 0.99 0.0003703703700411513 0.0003703703700411513 0.0003703703700411513 0.0003703703700411513 0.0003703703700412842 0.0003703703700411513 0.00037037037 0.0003703703730041143 0.0003703703730041143 0.0003703703730041143 0.0003703703700411513 0.0003703703700411513 0.0003703703700411513 0.0003703703700411513 0.0003703703700411513 0.0003703703700411513 0.0003703703700411513 0.0003703703700411513 0.0003703703700411513 0.0003703703700411513 0.0003703703700411513 0.0003703703700411513 0.0003703703700411513 0.0003703703700411513 0.0003703703700411513 0.0003703703700411513 0.0003703703700411513 0.0003703703700411513 0.99 0.0003703703700411513 0.0003703703700411513 0.0003703703700411513 0.0003703703700412842 0.0003703703700411513 0.00037037037 0.0003703703730041143 0.0003703703730041143 0.0003703703730041143 0.0003703703700411513 0.0003703703700411513 0.0003703703700411513 0.0003703703700411513 0.0003703703700411513 0.0003703703700411513 0.0003703703700411513 0.0003703703700411513 0.0003703703700411513 0.0003703703700411513 0.0003703703700411513 0.0003703703700411513 0.0003703703700411513 0.0003703703700411513 0.0003703703700411513 0.0003703703700411513 0.0003703703700411513 0.0003703703700411513 0.0003703703700411513 0.99 0.0003703703700411513 0.0003703703700411513 0.0003703703700412842 0.0003703703700411513 0.00037037037 0.0003703703730041143 0.0003703703730041143 0.0003703703730041143 0.0003703703700411513 0.0003703703700411513 0.0003703703700411513 0.0003703703700411513 0.0003703703700411513 0.0003703703700411513 0.0003703703700411513 0.0003703703700411513 0.0003703703700411513 0.0003703703700411513 0.0003703703700411513 0.0003703703700411513 0.0003703703700411513 0.0003703703700411513 0.0003703703700411513 0.0003703703700411513 0.0003703703700411513 0.0003703703700411513 0.0003703703700411513 0.0003703703700411513 0.99 0.0003703703700411513 0.0003703703700412842 0.0003703703700411513 0.00037037037 0.0003703703730041143 0.0003703703730041143 0.0003703703730041143 0.0003703703700411513 0.0003703703700411513 0.0003703703700411513 0.0003703703700411513 0.0003703703700411513 0.0003703703700411513 0.0003703703700411513 0.0003703703700411513 0.0003703703700411513 0.0003703703700411513 0.0003703703700411513 0.0003703703700411513 0.0003703703700411513 0.0003703703700411513 0.0003703703700411513 0.0003703703700411513 0.0003703703700411513 0.0003703703700411513 0.0003703703700411513 0.0003703703700411513 0.0003703703700411513 0.99 0.0003703703700412842 0.0003703703700411513 0.00037037037 0.0003703703730041143 0.0003703703730041143 0.0003703703730041143 0.0003703703700411513 0.0003703703700411513 0.0003703703700411513 0.99 0.0003703703700411513 0.0003703703700411513 0.0003703703700411513 0.0003703703700411513 0.0003703703700411513 0.0003703703700411513 0.0003703703700411513 0.0003703703700411513 0.0003703703700411513 0.0003703703700411513 0.0003703703700411513 0.0003703703700411513 0.0003703703700411513 0.0003703703700411513 0.0003703703700411513 0.0003703703700411513 0.0003703703700411513 0.0003703703700411513 0.0003703703700412842</probabilities>
		</cpt>
		<cpt id="larynx_tumor_type_group__patient">
			<state id="no_malignancy" />
			<state id="SIN_I_and_II" />
			<state id="SIN_III_and_SCC_in_situ" />
			<state id="SCC" />
			<state id="other" />
			<parents>larynx_tumor_type__patient</parents>
			<probabilities>0.9611650485436892 0.009708737864077671 0.009708737864077671 0.009708737864077671 0.009708737864077671 0.009708737864077671 0.9611650485436892 0.009708737864077671 0.009708737864077671 0.009708737864077671 0.009708737864077671 0.9611650485436892 0.009708737864077671 0.009708737864077671 0.009708737864077671 0.009708737864077671 0.009708737864077671 0.9611650485436892 0.009708737864077671 0.009708737864077671 0.009708737864077671 0.009708737864077671 0.9611650485436892 0.009708737864077671 0.009708737864077671 9.7087379e-005 0.009708737864077671 0.01932038834915539 0.9611650485436892 0.009708737864077671 0.009708737864077671 0.009708737864077671 0.009708737864077671 0.009708737864077671 0.9611650485436892 0.009708737864077671 0.009708737864077671 0.009708737864077671 0.009708737864077671 0.9611650485436892 0.009708737864077671 0.009708737864077671 0.009708737864077671 0.009708737864077671 0.9611650485436892 0.009708737864077671 0.009708737864077671 0.009708737864077671 0.009708737864077671 0.9611650485436892 0.009708737864077671 0.009708737864077671 0.009708737864077671 0.009708737864077671 0.9611650485436892 0.009708737864077671 0.009708737864077671 0.009708737864077671 0.009708737864077671 0.9611650485436892 0.009708737864077671 0.009708737864077671 0.009708737864077671 0.009708737864077671 0.9611650485436892 0.009708737864077671 0.009708737864077671 0.009708737864077671 0.009708737864077671 0.9611650485436892 0.009708737864077671 0.009708737864077671 0.009708737864077671 0.009708737864077671 0.9611650485436892 0.009708737864077671 0.009708737864077671 0.009708737864077671 0.009708737864077671 0.9611650485436892 0.009708737864077671 0.009708737864077671 0.009708737864077671 0.009708737864077671 0.9611650485436892 0.009708737864077671 0.009708737864077671 0.009708737864077671 0.009708737864077671 0.9611650485436892 0.009708737864077671 0.009708737864077671 0.009708737864077671 0.009708737864077671 0.9611650485436892 0.009708737864077671 0.009708737864077671 0.009708737864077671 0.009708737864077671 0.9611650485436892 0.009708737864077671 0.009708737864077671 0.009708737864077671 0.009708737864077671 0.9611650485436892 0.009708737864077671 0.009708737864077671 0.009708737864077671 0.009708737864077671 0.9611650485436892 0.009708737864077671 0.009708737864077671 0.009708737864077671 0.009708737864077671 0.9611650485436892 0.009708737864077671 0.009708737864077671 0.009708737864077671 0.009708737864077671 0.9611650485436892 0.009708737864077671 0.009708737864077671 0.009708737864077671 0.009708737864077671 0.9611650485436892 0.009708737864077671 0.009708737864077671 0.009708737864077671 0.009708737864077671 0.9611650485436892 0.009708737864077671 0.009708737864077671 0.009708737864077671 0.009708737864077671 0.9611650485436892</probabilities>
			<property id="unobservable">true</property>
		</cpt>
		<cpt id="larynx_infiltration_extrinsic_muscle_tongue__patient">
			<state id="no" />
			<state id="yes" />
			<parents>larynx_tumor_type_group__patient</parents>
			<probabilities>0.99 0.01 0.9 0.1 0.98 0.02 0.76 0.24 0.95 0.05</probabilities>
			<property id="unobservable">true</property>
		</cpt>
		<cpt id="larynx_infiltration_ACI_ACC__patient">
			<state id="no" />
			<state id="yes" />
			<parents>larynx_tumor_type_group__patient</parents>
			<probabilities>0.99 0.01 0.99 0.01 0.99 0.01 0.92 0.08 0.97 0.03</probabilities>
			<property id="unobservable">true</property>
		</cpt>
		<cpt id="larynx_infiltration_ACI_ACC_angiography__patient">
			<state id="unknown" />
			<state id="no" />
			<state id="yes" />
			<parents>larynx_infiltration_ACI_ACC__patient</parents>
			<probabilities>0.09523809523809523 0.8380952380952381 0.06666666666666667 0.07766990291262137 0.2135922330097088 0.7087378640776698</probabilities>
		</cpt>
		<cpt id="larynx_infiltration_pre_epiglottic_space__patient">
			<state id="no" />
			<state id="yes" />
			<parents>larynx_tumor_type_group__patient</parents>
			<probabilities>0.99 0.01 0.99 0.01 0.97 0.03 0.88 0.12 0.97 0.03</probabilities>
			<property id="unobservable">true</property>
		</cpt>
		<cpt id="larynx_infiltration_prevertebral_space__patient">
			<state id="no" />
			<state id="yes" />
			<parents>larynx_tumor_type_group__patient</parents>
			<probabilities>0.99 0.01 0.99 0.01 0.99 0.01 0.95 0.05 0.98 0.02</probabilities>
			<property id="unobservable">true</property>
		</cpt>
		<cpt id="larynx_infiltration_thyroid__patient">
			<state id="no" />
			<state id="yes" />
			<parents>larynx_tumor_type_group__patient</parents>
			<probabilities>0.99 0.01 0.99 0.01 0.98 0.02 0.94 0.06 0.97 0.03</probabilities>
			<property id="unobservable">true</property>
		</cpt>
		<cpt id="larynx_infiltration_thyroid_PET_neck__patient">
			<state id="unknown" />
			<state id="no" />
			<state id="yes" />
			<parents>larynx_infiltration_thyroid__patient</parents>
			<probabilities>0.05825242718446602 0.8932038834951456 0.04854368932038835 0.07476635514018691 0.08411214953271028 0.8411214953271028</probabilities>
		</cpt>
		<cpt id="larynx_infiltration_trachea__patient">
			<state id="no" />
			<state id="yes" />
			<parents>larynx_tumor_type_group__patient</parents>
			<probabilities>0.99 0.01 0.99 0.01 0.98 0.02 0.9300000000000001 0.07000000000000001 0.96 0.04</probabilities>
			<property id="unobservable">true</property>
		</cpt>
		<cpt id="larynx_infiltration_pyriform_sinus__patient">
			<state id="no" />
			<state id="yes" />
			<parents>larynx_tumor_type_group__patient</parents>
			<probabilities>0.99 0.01 0.96 0.04 0.92 0.08 0.75 0.25 0.9300000000000001 0.07000000000000001</probabilities>
			<property id="unobservable">true</property>
		</cpt>
		<cpt id="larynx_infiltration_soft_tissue_neck__patient">
			<state id="no" />
			<state id="yes" />
			<parents>larynx_tumor_type_group__patient</parents>
			<probabilities>0.99 0.01 0.99 0.01 0.98 0.02 0.86 0.14 0.95 0.05</probabilities>
			<property id="unobservable">true</property>
		</cpt>
		<cpt id="larynx_infiltration_mediastinum__patient">
			<state id="no" />
			<state id="yes" />
			<parents>larynx_tumor_type_group__patient</parents>
			<probabilities>0.99 0.01000000000000001 0.99 0.01 0.98 0.02 0.9 0.09999999999999998 0.6 0.4</probabilities>
			<property id="unobservable">true</property>
		</cpt>
		<cpt id="larynx_infiltration_tongue_base__patient">
			<state id="no" />
			<state id="yes" />
			<parents>larynx_tumor_type_group__patient</parents>
			<probabilities>0.99 0.01 0.96 0.04 0.88 0.12 0.75 0.25 0.9 0.1</probabilities>
			<property id="unobservable">true</property>
		</cpt>
		<cpt id="larynx_infiltration_esophagus__patient">
			<state id="no" />
			<state id="yes" />
			<parents>larynx_tumor_type_group__patient</parents>
			<probabilities>0.99 0.01 0.98 0.02 0.96 0.04 0.9 0.1 0.96 0.04</probabilities>
		</cpt>
		<cpt id="other_location_M__patient">
			<state id="M0" />
			<state id="M1" />
			<probabilities>0.9615384615384616 0.03846153846153846</probabilities>
			<property id="unobservable">true</property>
		</cpt>
		<cpt id="larynx_infiltration_arytenoid_cartilage__patient">
			<state id="no" />
			<state id="yes" />
			<parents>larynx_tumor_type_group__patient</parents>
			<probabilities>0.99 0.01 0.99 0.01 0.99 0.01 0.85 0.15 0.94 0.06</probabilities>
			<property id="unobservable">true</property>
		</cpt>
		<cpt id="larynx_infiltration_strap_muscles__patient">
			<state id="no" />
			<state id="yes" />
			<parents>larynx_tumor_type_group__patient</parents>
			<probabilities>0.99 0.01 0.99 0.01 0.99 0.01 0.88 0.12 0.96 0.04</probabilities>
			<property id="unobservable">true</property>
		</cpt>
		<cpt id="larynx_infiltration_postcricoid_area__patient">
			<state id="no" />
			<state id="yes" />
			<parents>larynx_tumor_type_group__patient</parents>
			<probabilities>0.99 0.01 0.96 0.04 0.94 0.06 0.8 0.2 0.96 0.04</probabilities>
			<property id="unobservable">true</property>
		</cpt>
		<cpt id="larynx_infiltration_infrahyoid_epiglottis__patient">
			<state id="no" />
			<state id="yes" />
			<parents>larynx_tumor_type_group__patient</parents>
			<probabilities>0.99 0.01 0.96 0.04 0.92 0.08 0.75 0.25 0.96 0.04</probabilities>
			<property id="unobservable">true</property>
		</cpt>
		<cpt id="larynx_tumor_localization__patient">
			<state id="none" />
			<state id="C32_0" />
			<state id="C32_1" />
			<state id="C32_2" />
			<state id="C32_3" />
			<state id="C32_8" />
			<state id="C32_9" />
			<parents>larynx_tumor_type__patient</parents>
			<probabilities>0.9999939999999998 9.999999999999997e-007 9.999999999999997e-007 9.999999999999997e-007 9.999999999999997e-007 9.999999999999997e-007 9.999999999999997e-007 1.408450704225352e-006 0.4225352112676055 0.4788732394366196 0.0704225352112676 0.001408450704225352 0.01408450704225352 0.0126746478873242 1.408450704225352e-006 0.4225352112676055 0.4788732394366196 0.0704225352112676 0.001408450704225352 0.01408450704225352 0.0126746478873242 1.408450704225352e-006 0.4225352112676055 0.4788732394366196 0.0704225352112676 0.001408450704225352 0.01408450704225352 0.0126746478873242 1.408450704225352e-006 0.4225352112676055 0.4788732394366196 0.0704225352112676 0.001408450704225352 0.01408450704225352 0.0126746478873242 1e-006 0.3 0.34 0.05 0.001 0.3 0.008999000000000035 1e-006 0.1 0.3 0.05 0.02 0.4299989999999999 0.1 1e-006 0.1 0.3 0.05 0.02 0.4299989999999999 0.1 1e-006 0.1 0.3 0.05 0.02 0.4299989999999999 0.1 1e-006 0.05 0.05 0.3 0.5 0.07999899999999995 0.02 1e-006 0.1 0.3 0.05 0.02 0.4299989999999999 0.1 1e-006 0.1 0.3 0.05 0.02 0.4299989999999999 0.1 1e-006 0.1 0.3 0.05 0.02 0.4299989999999999 0.1 1e-006 0.1 0.3 0.05 0.02 0.4299989999999999 0.1 1e-006 0.1 0.3 0.05 0.02 0.4299989999999999 0.1 1e-006 0.1 0.3 0.05 0.02 0.4299989999999999 0.1 1e-006 0.1 0.3 0.05 0.02 0.4299989999999999 0.1 1e-006 0.1 0.3 0.05 0.02 0.4299989999999999 0.1 1e-006 0.1 0.3 0.05 0.02 0.4299989999999999 0.1 1e-006 0.1 0.3 0.05 0.02 0.4299989999999999 0.1 1e-006 0.1 0.3 0.05 0.02 0.4299989999999999 0.1 1e-006 0.1 0.3 0.05 0.02 0.4299989999999999 0.1 1e-006 0.1 0.3 0.05 0.02 0.4299989999999999 0.1 1e-006 0.1 0.3 0.05 0.02 0.4299989999999999 0.1 1e-006 0.1 0.3 0.05 0.02 0.4299989999999999 0.1 1e-006 0.1 0.3 0.05 0.02 0.4299989999999999 0.1 1e-006 0.1 0.3 0.05 0.02 0.4299989999999999 0.1</probabilities>
			<property id="unobservable">true</property>
		</cpt>
		<cpt id="larynx_tumor_side__patient">
			<state id="none" />
			<state id="right" />
			<state id="left" />
			<state id="right_exceeding_the_midline" />
			<state id="left_exceeding_the_midline" />
			<parents>larynx_tumor_localization__patient</parents>
			<probabilities>1 0 0 0 0 0 0.1666666666666666 0.1666666666666666 0.3333333333333333 0.3333333333333333 0 0.1666666666666666 0.1666666666666666 0.3333333333333333 0.3333333333333333 0 0.1153846153846154 0.1153846153846154 0.3846153846153847 0.3846153846153847 0 0.1666666666666666 0.1666666666666666 0.3333333333333333 0.3333333333333333 0 0.05555555555555555 0.05555555555555555 0.4444444444444444 0.4444444444444444 0 0.3333333333333333 0.3333333333333333 0.1666666666666666 0.1666666666666666</probabilities>
			<property id="unobservable">true</property>
		</cpt>
		<cpt id="N_count__patient">
			<state id="x_0" />
			<state id="x_1" />
			<state id="moreThan_1" />
			<parents>larynx_tumor_side__patient N_count_CT_neck__patient</parents>
			<probabilities>1 0 0 0.520325201559918 0.308943088995307 0.170731709444775 0.520325201559918 0.308943088995307 0.170731709444775 0.2 0.35 0.45 0.2 0.35 0.45</probabilities>
			<property id="unobservable">true</property>
		</cpt>
		<cpt id="larynx_infiltration_aryepiglottic_fold__patient">
			<state id="no" />
			<state id="yes" />
			<parents>larynx_tumor_type_group__patient</parents>
			<probabilities>0.99 0.01 0.95 0.05 0.91 0.09 0.7 0.3 0.95 0.05</probabilities>
			<property id="unobservable">true</property>
		</cpt>
		<cpt id="larynx_infiltration_esophagus_swallowing_Xray__patient">
			<state id="unknown" />
			<state id="no" />
			<state id="yes" />
			<parents>larynx_infiltration_esophagus__patient</parents>
			<probabilities>0.06862745098039215 0.8823529411764706 0.04901960784313725 0.05376344086021505 0.1397849462365591 0.8064516129032258</probabilities>
		</cpt>
		<cpt id="larynx_infiltration_thyroid_cartilage__patient">
			<state id="no" />
			<state id="yes" />
			<parents>larynx_tumor_type_group__patient</parents>
			<probabilities>0.99 0.01 0.99 0.01 0.99 0.01 0.88 0.12 0.95 0.05</probabilities>
			<property id="unobservable">true</property>
		</cpt>
		<cpt id="larynx_infiltration_commissures__patient">
			<state id="none" />
			<state id="anterior" />
			<state id="posterior" />
			<state id="both" />
			<parents>larynx_tumor_type_group__patient</parents>
			<probabilities>0.9705882352941175 0.009803921568627451 0.009803921568627451 0.009803921568627451 0.3783783783783784 0.3081081081081081 0.2324324324324325 0.08108108108108109 0.4125 0.275 0.16875 0.14375 0.1470588235294118 0.3235294117647058 0.2941176470588235 0.2352941176470589 0.8737864077669904 0.04854368932038835 0.04854368932038835 0.02912621359223301</probabilities>
			<property id="unobservable">true</property>
		</cpt>
		<cpt id="larynx_infiltration_commissures_clinical_examination__patient">
			<state id="unknown" />
			<state id="none" />
			<state id="anterior" />
			<state id="posterior" />
			<state id="both" />
			<parents>larynx_infiltration_commissures__patient</parents>
			<probabilities>0.1130434782608696 0.7913043478260868 0.04347826086956522 0.03478260869565217 0.01739130434782609 0.07207207207207207 0.0990990990990991 0.7747747747747747 0.02702702702702703 0.02702702702702703 0.07619047619047618 0.03809523809523809 0.02857142857142857 0.819047619047619 0.03809523809523809 0.07272727272727272 0.01818181818181818 0.06363636363636363 0.05454545454545454 0.7909090909090909</probabilities>
		</cpt>
		<cpt id="larynx_infiltration_vallecula__patient">
			<state id="no" />
			<state id="yes" />
			<parents>larynx_tumor_type_group__patient</parents>
			<probabilities>0.99 0.01 0.95 0.05 0.88 0.12 0.76 0.24 0.94 0.06</probabilities>
			<property id="unobservable">true</property>
		</cpt>
		<cpt id="larynx_infiltration_suprahyoid_epiglottis__patient">
			<state id="no" />
			<state id="yes" />
			<parents>larynx_tumor_type_group__patient</parents>
			<probabilities>0.99 0.01 0.95 0.05 0.92 0.08 0.86 0.14 0.97 0.03</probabilities>
			<property id="unobservable">true</property>
		</cpt>
		<cpt id="larynx_function_vocal_fold__patient">
			<state id="normal" />
			<state id="impaired" />
			<state id="fixation" />
			<parents>larynx_tumor_type_group__patient</parents>
			<probabilities>0.9333333333333332 0.04761904761904762 0.01904761904761905 0.9333333333333332 0.04761904761904762 0.01904761904761905 0.9333333333333332 0.04761904761904762 0.01904761904761905 0.576923076923077 0.2692307692307692 0.1538461538461539 0.9074074074074074 0.06481481481481483 0.02777777777777778</probabilities>
			<property id="unobservable">true</property>
		</cpt>
		<cpt id="larynx_infiltration_vestibular_fold__patient">
			<state id="no" />
			<state id="yes" />
			<parents>larynx_tumor_type_group__patient</parents>
			<probabilities>0.99 0.01 0.9300000000000001 0.07000000000000001 0.87 0.13 0.65 0.35 0.94 0.06</probabilities>
			<property id="unobservable">true</property>
		</cpt>
		<cpt id="larynx_infiltration_paraepiglottic_space__patient">
			<state id="no" />
			<state id="yes" />
			<parents>larynx_tumor_type_group__patient</parents>
			<probabilities>0.99 0.01 0.99 0.01 0.99 0.01 0.88 0.12 0.95 0.05</probabilities>
			<property id="unobservable">true</property>
		</cpt>
		<cpt id="larynx_infiltration_vocal_fold__patient">
			<state id="none" />
			<state id="unilateral" />
			<state id="bilateral" />
			<parents>larynx_tumor_type_group__patient</parents>
			<probabilities>0.9801980198019803 0.009900990099009901 0.009900990099009901 0.8910891089108911 0.06930693069306931 0.0396039603960396 0.8252427184466019 0.0970873786407767 0.07766990291262137 0.5217391304347826 0.2173913043478261 0.2608695652173913 0.9504950495049505 0.0297029702970297 0.0198019801980198</probabilities>
			<property id="unobservable">true</property>
		</cpt>
		<cpt id="larynx_infiltration_subglottis__patient">
			<state id="no" />
			<state id="yes" />
			<parents>larynx_tumor_type_group__patient</parents>
			<probabilities>0.99 0.01 0.95 0.05 0.95 0.05 0.7 0.3 0.85 0.15</probabilities>
			<property id="unobservable">true</property>
		</cpt>
		<cpt id="larynx_glottis_infiltration_subside__patient">
			<state id="x_0" />
			<state id="x_1" />
			<state id="groesser1" />
			<parents>larynx_infiltration_commissures__patient larynx_infiltration_vocal_fold__patient larynx_infiltration_subglottis__patient</parents>
			<probabilities>0.9999979999999999 1e-006 1e-006 1e-006 0.9999979999999999 1e-006 1e-006 0.9999979999999999 1e-006 1e-006 1e-006 0.9999979999999999 1e-006 0.9999979999999999 1e-006 0.009900990099009901 0.9801980198019803 0.009900990099009901 0.009900990099009901 0.9801980198019803 0.009900990099009901 1e-006 1e-006 0.9999979999999999 1e-006 1e-006 0.9999979999999999 1e-006 1e-006 0.9999979999999999 1e-006 1e-006 0.9999979999999999 1e-006 1e-006 0.9999979999999999 1e-006 1e-006 0.9999979999999999 1e-006 1e-006 0.9999979999999999 1e-006 1e-006 0.9999979999999999 1e-006 1e-006 0.9999979999999999 1e-006 1e-006 0.9999979999999999 1e-006 1e-006 0.9999979999999999 1e-006 1e-006 0.9999979999999999 1e-006 1e-006 0.9999979999999999 1e-006 1e-006 0.9999979999999999 1e-006 1e-006 0.9999979999999999 1e-006 1e-006 0.9999979999999999 1e-006 1e-006 0.9999979999999999</probabilities>
			<property id="unobservable">true</property>
		</cpt>
		<cpt id="larynx_very_advanced_local_infiltration__patient">
			<state id="x_0" />
			<state id="groesser0" />
			<parents>larynx_infiltration_prevertebral_space__patient larynx_infiltration_mediastinum__patient larynx_infiltration_ACI_ACC__patient</parents>
			<probabilities>0.99 0.01000000000000001 0.01 0.99 0.01 0.99 0.01 0.99 0.01 0.99 0.01 0.99 0.01 0.99 0.01 0.99</probabilities>
			<property id="unobservable">true</property>
		</cpt>
		<cpt id="larynx_supraglottis_infiltration_subsides__patient">
			<state id="x_0" />
			<state id="x_1" />
			<state id="groesser1" />
			<parents>larynx_infiltration_vestibular_fold__patient larynx_infiltration_suprahyoid_epiglottis__patient larynx_infiltration_paraepiglottic_space__patient larynx_infiltration_pyriform_sinus__patient larynx_infiltration_arytenoid_cartilage__patient larynx_infiltration_infrahyoid_epiglottis__patient larynx_infiltration_postcricoid_area__patient larynx_infiltration_tongue_base__patient larynx_infiltration_thyroid_cartilage__patient larynx_infiltration_vallecula__patient larynx_infiltration_aryepiglottic_fold__patient larynx_infiltration_pre_epiglottic_space__patient</parents>
			<probabilities>0.9801980198019802 0.00990099009900991 0.009900990099009901 0.009900990099009901 0.9801980198019802 0.009900990099009901 0.009900990099009901 0.9801980198019802 0.009900990099009901 0.009900990099009901 0.00990099009900991 0.9801980198019802 0.009900990099009901 0.9801980198019802 0.009900990099009901 0.009900990099009901 0.00990099009900991 0.9801980198019802 0.009900990099009901 0.00990099009900991 0.9801980198019802 0.009900990099009901 0.00990099009900991 0.9801980198019802 0.009900990099009901 0.00990099009900991 0.9801980198019802 0.009900990099009901 0.00990099009900991 0.9801980198019802 0.009900990099009901 0.00990099009900991 0.9801980198019802 0.009900990099009901 0.00990099009900991 0.9801980198019802 0.009900990099009901 0.00990099009900991 0.9801980198019802 0.009900990099009901 0.00990099009900991 0.9801980198019802 0.009900990099009901 0.00990099009900991 0.9801980198019802 0.009900990099009901 0.00990099009900991 0.9801980198019802 0.009900990099009901 0.9801980198019802 0.009900990099009901 0.009900990099009901 0.00990099009900991 0.9801980198019802 0.009900990099009901 0.00990099009900991 0.9801980198019802 0.009900990099009901 0.00990099009900991 0.9801980198019802 0.009900990099009901 0.00990099009900991 0.9801980198019802 0.009900990099009901 0.00990099009900991 0.9801980198019802 0.009900990099009901 0.00990099009900991 0.9801980198019802 0.009900990099009901 0.00990099009900991 0.9801980198019802 0.009900990099009901 0.00990099009900991 0.9801980198019802 0.009900990099009901 0.00990099009900991 0.9801980198019802 0.009900990099009901 0.00990099009900991 0.9801980198019802 0.009900990099009901 0.00990099009900991 0.9801980198019802 0.009900990099009901 0.00990099009900991 0.9801980198019802 0.009900990099009901 0.00990099009900991 0.9801980198019802 0.009900990099009901 0.00990099009900991 0.9801980198019802 0.009900990099009901 0.00990099009900991 0.9801980198019802 0.009900990099009901 0.9801980198019802 0.009900990099009901 0.009900990099009901 0.00990099009900991 0.9801980198019802 0.009900990099009901 0.00990099009900991 0.9801980198019802 0.009900990099009901 0.00990099009900991 0.9801980198019802 0.009900990099009901 0.00990099009900991 0.9801980198019802 0.009900990099009901 0.00990099009900991 0.9801980198019802 0.009900990099009901 0.00990099009900991 0.9801980198019802 0.009900990099009901 0.00990099009900991 0.9801980198019802 0.009900990099009901 0.00990099009900991 0.9801980198019802 0.009900990099009901 0.00990099009900991 0.9801980198019802 0.009900990099009901 0.00990099009900991 0.9801980198019802 0.009900990099009901 0.00990099009900991 0.9801980198019802 0.009900990099009901 0.00990099009900991 0.9801980198019802 0.009900990099009901 0.00990099009900991 0.9801980198019802 0.009900990099009901 0.00990099009900991 0.9801980198019802 0.009900990099009901 0.00990099009900991 0.9801980198019802 0.009900990099009901 0.00990099009900991 0.9801980198019802 0.009900990099009901 0.00990099009900991 0.9801980198019802 0.009900990099009901 0.00990099009900991 0.9801980198019802 0.009900990099009901 0.00990099009900991 0.9801980198019802 0.009900990099009901 0.00990099009900991 0.9801980198019802 0.009900990099009901 0.00990099009900991 0.9801980198019802 0.009900990099009901 0.00990099009900991 0.9801980198019802 0.009900990099009901 0.00990099009900991 0.9801980198019802 0.009900990099009901 0.00990099009900991 0.9801980198019802 0.009900990099009901 0.00990099009900991 0.9801980198019802 0.009900990099009901 0.00990099009900991 0.9801980198019802 0.009900990099009901 0.00990099009900991 0.9801980198019802 0.009900990099009901 0.00990099009900991 0.9801980198019802 0.009900990099009901 0.00990099009900991 0.9801980198019802 0.009900990099009901 0.00990099009900991 0.9801980198019802 0.009900990099009901 0.00990099009900991 0.9801980198019802 0.009900990099009901 0.9801980198019802 0.009900990099009901 0.009900990099009901 0.00990099009900991 0.9801980198019802 0.009900990099009901 0.00990099009900991 0.9801980198019802 0.009900990099009901 0.00990099009900991 0.9801980198019802 0.009900990099009901 0.00990099009900991 0.9801980198019802 0.009900990099009901 0.00990099009900991 0.9801980198019802 0.009900990099009901 0.00990099009900991 0.9801980198019802 0.009900990099009901 0.00990099009900991 0.9801980198019802 0.009900990099009901 0.00990099009900991 0.9801980198019802 0.009900990099009901 0.00990099009900991 0.9801980198019802 0.009900990099009901 0.00990099009900991 0.9801980198019802 0.009900990099009901 0.00990099009900991 0.9801980198019802 0.009900990099009901 0.00990099009900991 0.9801980198019802 0.009900990099009901 0.00990099009900991 0.9801980198019802 0.009900990099009901 0.00990099009900991 0.9801980198019802 0.009900990099009901 0.00990099009900991 0.9801980198019802 0.009900990099009901 0.00990099009900991 0.9801980198019802 0.009900990099009901 0.00990099009900991 0.9801980198019802 0.009900990099009901 0.00990099009900991 0.9801980198019802 0.009900990099009901 0.00990099009900991 0.9801980198019802 0.009900990099009901 0.00990099009900991 0.9801980198019802 0.009900990099009901 0.00990099009900991 0.9801980198019802 0.009900990099009901 0.00990099009900991 0.9801980198019802 0.009900990099009901 0.00990099009900991 0.9801980198019802 0.009900990099009901 0.00990099009900991 0.9801980198019802 0.009900990099009901 0.00990099009900991 0.9801980198019802 0.009900990099009901 0.00990099009900991 0.9801980198019802 0.009900990099009901 0.00990099009900991 0.9801980198019802 0.009900990099009901 0.00990099009900991 0.9801980198019802 0.009900990099009901 0.00990099009900991 0.9801980198019802 0.009900990099009901 0.00990099009900991 0.9801980198019802 0.009900990099009901 0.00990099009900991 0.9801980198019802 0.009900990099009901 0.00990099009900991 0.9801980198019802 0.009900990099009901 0.00990099009900991 0.9801980198019802 0.009900990099009901 0.00990099009900991 0.9801980198019802 0.009900990099009901 0.00990099009900991 0.9801980198019802 0.009900990099009901 0.00990099009900991 0.9801980198019802 0.009900990099009901 0.00990099009900991 0.9801980198019802 0.009900990099009901 0.00990099009900991 0.9801980198019802 0.009900990099009901 0.00990099009900991 0.9801980198019802 0.009900990099009901 0.00990099009900991 0.9801980198019802 0.009900990099009901 0.00990099009900991 0.9801980198019802 0.009900990099009901 0.00990099009900991 0.9801980198019802 0.009900990099009901 0.00990099009900991 0.9801980198019802 0.009900990099009901 0.00990099009900991 0.9801980198019802 0.009900990099009901 0.00990099009900991 0.9801980198019802 0.009900990099009901 0.00990099009900991 0.9801980198019802 0.009900990099009901 0.00990099009900991 0.9801980198019802 0.009900990099009901 0.00990099009900991 0.9801980198019802 0.009900990099009901 0.00990099009900991 0.9801980198019802 0.009900990099009901 0.00990099009900991 0.9801980198019802 0.009900990099009901 0.00990099009900991 0.9801980198019802 0.009900990099009901 0.00990099009900991 0.9801980198019802 0.009900990099009901 0.00990099009900991 0.9801980198019802 0.009900990099009901 0.00990099009900991 0.9801980198019802 0.009900990099009901 0.00990099009900991 0.9801980198019802 0.009900990099009901 0.00990099009900991 0.9801980198019802 0.009900990099009901 0.00990099009900991 0.9801980198019802 0.009900990099009901 0.00990099009900991 0.9801980198019802 0.009900990099009901 0.00990099009900991 0.9801980198019802 0.009900990099009901 0.00990099009900991 0.9801980198019802 0.009900990099009901 0.00990099009900991 0.9801980198019802 0.009900990099009901 0.00990099009900991 0.9801980198019802 0.009900990099009901 0.00990099009900991 0.9801980198019802 0.009900990099009901 0.9801980198019802 0.009900990099009901 0.009900990099009901 0.00990099009900991 0.9801980198019802 0.009900990099009901 0.00990099009900991 0.9801980198019802 0.009900990099009901 0.00990099009900991 0.9801980198019802 0.009900990099009901 0.00990099009900991 0.9801980198019802 0.009900990099009901 0.00990099009900991 0.9801980198019802 0.009900990099009901 0.00990099009900991 0.9801980198019802 0.009900990099009901 0.00990099009900991 0.9801980198019802 0.009900990099009901 0.00990099009900991 0.9801980198019802 0.009900990099009901 0.00990099009900991 0.9801980198019802 0.009900990099009901 0.00990099009900991 0.9801980198019802 0.009900990099009901 0.00990099009900991 0.9801980198019802 0.009900990099009901 0.00990099009900991 0.9801980198019802 0.009900990099009901 0.00990099009900991 0.9801980198019802 0.009900990099009901 0.00990099009900991 0.9801980198019802 0.009900990099009901 0.00990099009900991 0.9801980198019802 0.009900990099009901 0.00990099009900991 0.9801980198019802 0.009900990099009901 0.00990099009900991 0.9801980198019802 0.009900990099009901 0.00990099009900991 0.9801980198019802 0.009900990099009901 0.00990099009900991 0.9801980198019802 0.009900990099009901 0.00990099009900991 0.9801980198019802 0.009900990099009901 0.00990099009900991 0.9801980198019802 0.009900990099009901 0.00990099009900991 0.9801980198019802 0.009900990099009901 0.00990099009900991 0.9801980198019802 0.009900990099009901 0.00990099009900991 0.9801980198019802 0.009900990099009901 0.00990099009900991 0.9801980198019802 0.009900990099009901 0.00990099009900991 0.9801980198019802 0.009900990099009901 0.00990099009900991 0.9801980198019802 0.009900990099009901 0.00990099009900991 0.9801980198019802 0.009900990099009901 0.00990099009900991 0.9801980198019802 0.009900990099009901 0.00990099009900991 0.9801980198019802 0.009900990099009901 0.00990099009900991 0.9801980198019802 0.009900990099009901 0.00990099009900991 0.9801980198019802 0.009900990099009901 0.00990099009900991 0.9801980198019802 0.009900990099009901 0.00990099009900991 0.9801980198019802 0.009900990099009901 0.00990099009900991 0.9801980198019802 0.009900990099009901 0.00990099009900991 0.9801980198019802 0.009900990099009901 0.00990099009900991 0.9801980198019802 0.009900990099009901 0.00990099009900991 0.9801980198019802 0.009900990099009901 0.00990099009900991 0.9801980198019802 0.009900990099009901 0.00990099009900991 0.9801980198019802 0.009900990099009901 0.00990099009900991 0.9801980198019802 0.009900990099009901 0.00990099009900991 0.9801980198019802 0.009900990099009901 0.00990099009900991 0.9801980198019802 0.009900990099009901 0.00990099009900991 0.9801980198019802 0.009900990099009901 0.00990099009900991 0.9801980198019802 0.009900990099009901 0.00990099009900991 0.9801980198019802 0.009900990099009901 0.00990099009900991 0.9801980198019802 0.009900990099009901 0.00990099009900991 0.9801980198019802 0.009900990099009901 0.00990099009900991 0.9801980198019802 0.009900990099009901 0.00990099009900991 0.9801980198019802 0.009900990099009901 0.00990099009900991 0.9801980198019802 0.009900990099009901 0.00990099009900991 0.9801980198019802 0.009900990099009901 0.00990099009900991 0.9801980198019802 0.009900990099009901 0.00990099009900991 0.9801980198019802 0.009900990099009901 0.00990099009900991 0.9801980198019802 0.009900990099009901 0.00990099009900991 0.9801980198019802 0.009900990099009901 0.00990099009900991 0.9801980198019802 0.009900990099009901 0.00990099009900991 0.9801980198019802 0.009900990099009901 0.00990099009900991 0.9801980198019802 0.009900990099009901 0.00990099009900991 0.9801980198019802 0.009900990099009901 0.00990099009900991 0.9801980198019802 0.009900990099009901 0.00990099009900991 0.9801980198019802 0.009900990099009901 0.00990099009900991 0.9801980198019802 0.009900990099009901 0.00990099009900991 0.9801980198019802 0.009900990099009901 0.00990099009900991 0.9801980198019802 0.009900990099009901 0.00990099009900991 0.9801980198019802 0.009900990099009901 0.00990099009900991 0.9801980198019802 0.009900990099009901 0.00990099009900991 0.9801980198019802 0.009900990099009901 0.00990099009900991 0.9801980198019802 0.009900990099009901 0.00990099009900991 0.9801980198019802 0.009900990099009901 0.00990099009900991 0.9801980198019802 0.009900990099009901 0.00990099009900991 0.9801980198019802 0.009900990099009901 0.00990099009900991 0.9801980198019802 0.009900990099009901 0.00990099009900991 0.9801980198019802 0.009900990099009901 0.00990099009900991 0.9801980198019802 0.009900990099009901 0.00990099009900991 0.9801980198019802 0.009900990099009901 0.00990099009900991 0.9801980198019802 0.009900990099009901 0.00990099009900991 0.9801980198019802 0.009900990099009901 0.00990099009900991 0.9801980198019802 0.009900990099009901 0.00990099009900991 0.9801980198019802 0.009900990099009901 0.00990099009900991 0.9801980198019802 0.009900990099009901 0.00990099009900991 0.9801980198019802 0.009900990099009901 0.00990099009900991 0.9801980198019802 0.009900990099009901 0.00990099009900991 0.9801980198019802 0.009900990099009901 0.00990099009900991 0.9801980198019802 0.009900990099009901 0.00990099009900991 0.9801980198019802 0.009900990099009901 0.00990099009900991 0.9801980198019802 0.009900990099009901 0.00990099009900991 0.9801980198019802 0.009900990099009901 0.00990099009900991 0.9801980198019802 0.009900990099009901 0.00990099009900991 0.9801980198019802 0.009900990099009901 0.00990099009900991 0.9801980198019802 0.009900990099009901 0.00990099009900991 0.9801980198019802 0.009900990099009901 0.00990099009900991 0.9801980198019802 0.009900990099009901 0.00990099009900991 0.9801980198019802 0.009900990099009901 0.00990099009900991 0.9801980198019802 0.009900990099009901 0.00990099009900991 0.9801980198019802 0.009900990099009901 0.00990099009900991 0.9801980198019802 0.009900990099009901 0.00990099009900991 0.9801980198019802 0.009900990099009901 0.00990099009900991 0.9801980198019802 0.009900990099009901 0.00990099009900991 0.9801980198019802 0.009900990099009901 0.00990099009900991 0.9801980198019802 0.009900990099009901 0.00990099009900991 0.9801980198019802 0.009900990099009901 0.00990099009900991 0.9801980198019802 0.009900990099009901 0.00990099009900991 0.9801980198019802 0.009900990099009901 0.00990099009900991 0.9801980198019802 0.009900990099009901 0.00990099009900991 0.9801980198019802 0.009900990099009901 0.00990099009900991 0.9801980198019802 0.009900990099009901 0.00990099009900991 0.9801980198019802 0.009900990099009901 0.00990099009900991 0.9801980198019802 0.009900990099009901 0.00990099009900991 0.9801980198019802 0.009900990099009901 0.00990099009900991 0.9801980198019802 0.009900990099009901 0.00990099009900991 0.9801980198019802 0.009900990099009901 0.00990099009900991 0.9801980198019802 0.009900990099009901 0.00990099009900991 0.9801980198019802 0.009900990099009901 0.00990099009900991 0.9801980198019802 0.009900990099009901 0.00990099009900991 0.9801980198019802 0.009900990099009901 0.00990099009900991 0.9801980198019802 0.009900990099009901 0.00990099009900991 0.9801980198019802 0.009900990099009901 0.00990099009900991 0.9801980198019802 0.009900990099009901 0.00990099009900991 0.9801980198019802 0.009900990099009901 0.00990099009900991 0.9801980198019802 0.009900990099009901 0.00990099009900991 0.9801980198019802 0.009900990099009901 0.00990099009900991 0.9801980198019802 0.009900990099009901 0.00990099009900991 0.9801980198019802 0.009900990099009901 0.00990099009900991 0.9801980198019802 0.009900990099009901 0.00990099009900991 0.9801980198019802 0.009900990099009901 0.00990099009900991 0.9801980198019802 0.009900990099009901 0.9801980198019802 0.009900990099009901 0.009900990099009901 0.00990099009900991 0.9801980198019802 0.009900990099009901 0.00990099009900991 0.9801980198019802 0.009900990099009901 0.00990099009900991 0.9801980198019802 0.009900990099009901 0.00990099009900991 0.9801980198019802 0.009900990099009901 0.00990099009900991 0.9801980198019802 0.009900990099009901 0.00990099009900991 0.9801980198019802 0.009900990099009901 0.00990099009900991 0.9801980198019802 0.009900990099009901 0.00990099009900991 0.9801980198019802 0.009900990099009901 0.00990099009900991 0.9801980198019802 0.009900990099009901 0.00990099009900991 0.9801980198019802 0.009900990099009901 0.00990099009900991 0.9801980198019802 0.009900990099009901 0.00990099009900991 0.9801980198019802 0.009900990099009901 0.00990099009900991 0.9801980198019802 0.009900990099009901 0.00990099009900991 0.9801980198019802 0.009900990099009901 0.00990099009900991 0.9801980198019802 0.009900990099009901 0.00990099009900991 0.9801980198019802 0.009900990099009901 0.00990099009900991 0.9801980198019802 0.009900990099009901 0.00990099009900991 0.9801980198019802 0.009900990099009901 0.00990099009900991 0.9801980198019802 0.009900990099009901 0.00990099009900991 0.9801980198019802 0.009900990099009901 0.00990099009900991 0.9801980198019802 0.009900990099009901 0.00990099009900991 0.9801980198019802 0.009900990099009901 0.00990099009900991 0.9801980198019802 0.009900990099009901 0.00990099009900991 0.9801980198019802 0.009900990099009901 0.00990099009900991 0.9801980198019802 0.009900990099009901 0.00990099009900991 0.9801980198019802 0.009900990099009901 0.00990099009900991 0.9801980198019802 0.009900990099009901 0.00990099009900991 0.9801980198019802 0.009900990099009901 0.00990099009900991 0.9801980198019802 0.009900990099009901 0.00990099009900991 0.9801980198019802 0.009900990099009901 0.00990099009900991 0.9801980198019802 0.009900990099009901 0.00990099009900991 0.9801980198019802 0.009900990099009901 0.00990099009900991 0.9801980198019802 0.009900990099009901 0.00990099009900991 0.9801980198019802 0.009900990099009901 0.00990099009900991 0.9801980198019802 0.009900990099009901 0.00990099009900991 0.9801980198019802 0.009900990099009901 0.00990099009900991 0.9801980198019802 0.009900990099009901 0.00990099009900991 0.9801980198019802 0.009900990099009901 0.00990099009900991 0.9801980198019802 0.009900990099009901 0.00990099009900991 0.9801980198019802 0.009900990099009901 0.00990099009900991 0.9801980198019802 0.009900990099009901 0.00990099009900991 0.9801980198019802 0.009900990099009901 0.00990099009900991 0.9801980198019802 0.009900990099009901 0.00990099009900991 0.9801980198019802 0.009900990099009901 0.00990099009900991 0.9801980198019802 0.009900990099009901 0.00990099009900991 0.9801980198019802 0.009900990099009901 0.00990099009900991 0.9801980198019802 0.009900990099009901 0.00990099009900991 0.9801980198019802 0.009900990099009901 0.00990099009900991 0.9801980198019802 0.009900990099009901 0.00990099009900991 0.9801980198019802 0.009900990099009901 0.00990099009900991 0.9801980198019802 0.009900990099009901 0.00990099009900991 0.9801980198019802 0.009900990099009901 0.00990099009900991 0.9801980198019802 0.009900990099009901 0.00990099009900991 0.9801980198019802 0.009900990099009901 0.00990099009900991 0.9801980198019802 0.009900990099009901 0.00990099009900991 0.9801980198019802 0.009900990099009901 0.00990099009900991 0.9801980198019802 0.009900990099009901 0.00990099009900991 0.9801980198019802 0.009900990099009901 0.00990099009900991 0.9801980198019802 0.009900990099009901 0.00990099009900991 0.9801980198019802 0.009900990099009901 0.00990099009900991 0.9801980198019802 0.009900990099009901 0.00990099009900991 0.9801980198019802 0.009900990099009901 0.00990099009900991 0.9801980198019802 0.009900990099009901 0.00990099009900991 0.9801980198019802 0.009900990099009901 0.00990099009900991 0.9801980198019802 0.009900990099009901 0.00990099009900991 0.9801980198019802 0.009900990099009901 0.00990099009900991 0.9801980198019802 0.009900990099009901 0.00990099009900991 0.9801980198019802 0.009900990099009901 0.00990099009900991 0.9801980198019802 0.009900990099009901 0.00990099009900991 0.9801980198019802 0.009900990099009901 0.00990099009900991 0.9801980198019802 0.009900990099009901 0.00990099009900991 0.9801980198019802 0.009900990099009901 0.00990099009900991 0.9801980198019802 0.009900990099009901 0.00990099009900991 0.9801980198019802 0.009900990099009901 0.00990099009900991 0.9801980198019802 0.009900990099009901 0.00990099009900991 0.9801980198019802 0.009900990099009901 0.00990099009900991 0.9801980198019802 0.009900990099009901 0.00990099009900991 0.9801980198019802 0.009900990099009901 0.00990099009900991 0.9801980198019802 0.009900990099009901 0.00990099009900991 0.9801980198019802 0.009900990099009901 0.00990099009900991 0.9801980198019802 0.009900990099009901 0.00990099009900991 0.9801980198019802 0.009900990099009901 0.00990099009900991 0.9801980198019802 0.009900990099009901 0.00990099009900991 0.9801980198019802 0.009900990099009901 0.00990099009900991 0.9801980198019802 0.009900990099009901 0.00990099009900991 0.9801980198019802 0.009900990099009901 0.00990099009900991 0.9801980198019802 0.009900990099009901 0.00990099009900991 0.9801980198019802 0.009900990099009901 0.00990099009900991 0.9801980198019802 0.009900990099009901 0.00990099009900991 0.9801980198019802 0.009900990099009901 0.00990099009900991 0.9801980198019802 0.009900990099009901 0.00990099009900991 0.9801980198019802 0.009900990099009901 0.00990099009900991 0.9801980198019802 0.009900990099009901 0.00990099009900991 0.9801980198019802 0.009900990099009901 0.00990099009900991 0.9801980198019802 0.009900990099009901 0.00990099009900991 0.9801980198019802 0.009900990099009901 0.00990099009900991 0.9801980198019802 0.009900990099009901 0.00990099009900991 0.9801980198019802 0.009900990099009901 0.00990099009900991 0.9801980198019802 0.009900990099009901 0.00990099009900991 0.9801980198019802 0.009900990099009901 0.00990099009900991 0.9801980198019802 0.009900990099009901 0.00990099009900991 0.9801980198019802 0.009900990099009901 0.00990099009900991 0.9801980198019802 0.009900990099009901 0.00990099009900991 0.9801980198019802 0.009900990099009901 0.00990099009900991 0.9801980198019802 0.009900990099009901 0.00990099009900991 0.9801980198019802 0.009900990099009901 0.00990099009900991 0.9801980198019802 0.009900990099009901 0.00990099009900991 0.9801980198019802 0.009900990099009901 0.00990099009900991 0.9801980198019802 0.009900990099009901 0.00990099009900991 0.9801980198019802 0.009900990099009901 0.00990099009900991 0.9801980198019802 0.009900990099009901 0.00990099009900991 0.9801980198019802 0.009900990099009901 0.00990099009900991 0.9801980198019802 0.009900990099009901 0.00990099009900991 0.9801980198019802 0.009900990099009901 0.00990099009900991 0.9801980198019802 0.009900990099009901 0.00990099009900991 0.9801980198019802 0.009900990099009901 0.00990099009900991 0.9801980198019802 0.009900990099009901 0.00990099009900991 0.9801980198019802 0.009900990099009901 0.00990099009900991 0.9801980198019802 0.009900990099009901 0.00990099009900991 0.9801980198019802 0.009900990099009901 0.00990099009900991 0.9801980198019802 0.009900990099009901 0.00990099009900991 0.9801980198019802 0.009900990099009901 0.00990099009900991 0.9801980198019802 0.009900990099009901 0.00990099009900991 0.9801980198019802 0.009900990099009901 0.00990099009900991 0.9801980198019802 0.009900990099009901 0.00990099009900991 0.9801980198019802 0.009900990099009901 0.00990099009900991 0.9801980198019802 0.009900990099009901 0.00990099009900991 0.9801980198019802 0.009900990099009901 0.00990099009900991 0.9801980198019802 0.009900990099009901 0.00990099009900991 0.9801980198019802 0.009900990099009901 0.00990099009900991 0.9801980198019802 0.009900990099009901 0.00990099009900991 0.9801980198019802 0.009900990099009901 0.00990099009900991 0.9801980198019802 0.009900990099009901 0.00990099009900991 0.9801980198019802 0.009900990099009901 0.00990099009900991 0.9801980198019802 0.009900990099009901 0.00990099009900991 0.9801980198019802 0.009900990099009901 0.00990099009900991 0.9801980198019802 0.009900990099009901 0.00990099009900991 0.9801980198019802 0.009900990099009901 0.00990099009900991 0.9801980198019802 0.009900990099009901 0.00990099009900991 0.9801980198019802 0.009900990099009901 0.00990099009900991 0.9801980198019802 0.009900990099009901 0.00990099009900991 0.9801980198019802 0.009900990099009901 0.00990099009900991 0.9801980198019802 0.009900990099009901 0.00990099009900991 0.9801980198019802 0.009900990099009901 0.00990099009900991 0.9801980198019802 0.009900990099009901 0.00990099009900991 0.9801980198019802 0.009900990099009901 0.00990099009900991 0.9801980198019802 0.009900990099009901 0.00990099009900991 0.9801980198019802 0.009900990099009901 0.00990099009900991 0.9801980198019802 0.009900990099009901 0.00990099009900991 0.9801980198019802 0.009900990099009901 0.00990099009900991 0.9801980198019802 0.009900990099009901 0.00990099009900991 0.9801980198019802 0.009900990099009901 0.00990099009900991 0.9801980198019802 0.009900990099009901 0.00990099009900991 0.9801980198019802 0.009900990099009901 0.00990099009900991 0.9801980198019802 0.009900990099009901 0.00990099009900991 0.9801980198019802 0.009900990099009901 0.00990099009900991 0.9801980198019802 0.009900990099009901 0.00990099009900991 0.9801980198019802 0.009900990099009901 0.00990099009900991 0.9801980198019802 0.009900990099009901 0.00990099009900991 0.9801980198019802 0.009900990099009901 0.00990099009900991 0.9801980198019802 0.009900990099009901 0.00990099009900991 0.9801980198019802 0.009900990099009901 0.00990099009900991 0.9801980198019802 0.009900990099009901 0.00990099009900991 0.9801980198019802 0.009900990099009901 0.00990099009900991 0.9801980198019802 0.009900990099009901 0.00990099009900991 0.9801980198019802 0.009900990099009901 0.00990099009900991 0.9801980198019802 0.009900990099009901 0.00990099009900991 0.9801980198019802 0.009900990099009901 0.00990099009900991 0.9801980198019802 0.009900990099009901 0.00990099009900991 0.9801980198019802 0.009900990099009901 0.00990099009900991 0.9801980198019802 0.009900990099009901 0.00990099009900991 0.9801980198019802 0.009900990099009901 0.00990099009900991 0.9801980198019802 0.009900990099009901 0.00990099009900991 0.9801980198019802 0.009900990099009901 0.00990099009900991 0.9801980198019802 0.009900990099009901 0.00990099009900991 0.9801980198019802 0.009900990099009901 0.00990099009900991 0.9801980198019802 0.009900990099009901 0.00990099009900991 0.9801980198019802 0.009900990099009901 0.00990099009900991 0.9801980198019802 0.009900990099009901 0.00990099009900991 0.9801980198019802 0.009900990099009901 0.00990099009900991 0.9801980198019802 0.009900990099009901 0.00990099009900991 0.9801980198019802 0.009900990099009901 0.00990099009900991 0.9801980198019802 0.009900990099009901 0.00990099009900991 0.9801980198019802 0.009900990099009901 0.00990099009900991 0.9801980198019802 0.009900990099009901 0.00990099009900991 0.9801980198019802 0.009900990099009901 0.00990099009900991 0.9801980198019802 0.009900990099009901 0.00990099009900991 0.9801980198019802 0.009900990099009901 0.00990099009900991 0.9801980198019802 0.009900990099009901 0.00990099009900991 0.9801980198019802 0.009900990099009901 0.00990099009900991 0.9801980198019802 0.009900990099009901 0.00990099009900991 0.9801980198019802 0.009900990099009901 0.00990099009900991 0.9801980198019802 0.009900990099009901 0.00990099009900991 0.9801980198019802 0.009900990099009901 0.00990099009900991 0.9801980198019802 0.009900990099009901 0.00990099009900991 0.9801980198019802 0.009900990099009901 0.00990099009900991 0.9801980198019802 0.009900990099009901 0.00990099009900991 0.9801980198019802 0.009900990099009901 0.00990099009900991 0.9801980198019802 0.009900990099009901 0.00990099009900991 0.9801980198019802 0.009900990099009901 0.00990099009900991 0.9801980198019802 0.009900990099009901 0.00990099009900991 0.9801980198019802 0.009900990099009901 0.00990099009900991 0.9801980198019802 0.009900990099009901 0.00990099009900991 0.9801980198019802 0.009900990099009901 0.00990099009900991 0.9801980198019802 0.009900990099009901 0.00990099009900991 0.9801980198019802 0.009900990099009901 0.00990099009900991 0.9801980198019802 0.009900990099009901 0.00990099009900991 0.9801980198019802 0.009900990099009901 0.00990099009900991 0.9801980198019802 0.009900990099009901 0.00990099009900991 0.9801980198019802 0.009900990099009901 0.00990099009900991 0.9801980198019802 0.009900990099009901 0.00990099009900991 0.9801980198019802 0.009900990099009901 0.00990099009900991 0.9801980198019802 0.009900990099009901 0.00990099009900991 0.9801980198019802 0.009900990099009901 0.00990099009900991 0.9801980198019802 0.009900990099009901 0.00990099009900991 0.9801980198019802 0.009900990099009901 0.00990099009900991 0.9801980198019802 0.009900990099009901 0.00990099009900991 0.9801980198019802 0.009900990099009901 0.00990099009900991 0.9801980198019802 0.009900990099009901 0.00990099009900991 0.9801980198019802 0.009900990099009901 0.00990099009900991 0.9801980198019802 0.009900990099009901 0.00990099009900991 0.9801980198019802 0.009900990099009901 0.00990099009900991 0.9801980198019802 0.009900990099009901 0.00990099009900991 0.9801980198019802 0.009900990099009901 0.00990099009900991 0.9801980198019802 0.009900990099009901 0.00990099009900991 0.9801980198019802 0.009900990099009901 0.00990099009900991 0.9801980198019802 0.009900990099009901 0.00990099009900991 0.9801980198019802 0.009900990099009901 0.00990099009900991 0.9801980198019802 0.009900990099009901 0.00990099009900991 0.9801980198019802 0.009900990099009901 0.00990099009900991 0.9801980198019802 0.009900990099009901 0.00990099009900991 0.9801980198019802 0.009900990099009901 0.00990099009900991 0.9801980198019802 0.009900990099009901 0.00990099009900991 0.9801980198019802 0.009900990099009901 0.00990099009900991 0.9801980198019802 0.009900990099009901 0.00990099009900991 0.9801980198019802 0.009900990099009901 0.00990099009900991 0.9801980198019802 0.009900990099009901 0.00990099009900991 0.9801980198019802 0.009900990099009901 0.00990099009900991 0.9801980198019802 0.009900990099009901 0.00990099009900991 0.9801980198019802 0.009900990099009901 0.00990099009900991 0.9801980198019802 0.009900990099009901 0.00990099009900991 0.9801980198019802 0.009900990099009901 0.00990099009900991 0.9801980198019802 0.009900990099009901 0.00990099009900991 0.9801980198019802 0.009900990099009901 0.00990099009900991 0.9801980198019802 0.009900990099009901 0.00990099009900991 0.9801980198019802 0.009900990099009901 0.00990099009900991 0.9801980198019802 0.009900990099009901 0.00990099009900991 0.9801980198019802 0.009900990099009901 0.00990099009900991 0.9801980198019802 0.009900990099009901 0.00990099009900991 0.9801980198019802 0.009900990099009901 0.00990099009900991 0.9801980198019802 0.009900990099009901 0.00990099009900991 0.9801980198019802 0.009900990099009901 0.00990099009900991 0.9801980198019802 0.009900990099009901 0.00990099009900991 0.9801980198019802 0.009900990099009901 0.00990099009900991 0.9801980198019802 0.009900990099009901 0.9801980198019802 0.009900990099009901 0.009900990099009901 0.00990099009900991 0.9801980198019802 0.009900990099009901 0.00990099009900991 0.9801980198019802 0.009900990099009901 0.00990099009900991 0.9801980198019802 0.009900990099009901 0.00990099009900991 0.9801980198019802 0.009900990099009901 0.00990099009900991 0.9801980198019802 0.009900990099009901 0.00990099009900991 0.9801980198019802 0.009900990099009901 0.00990099009900991 0.9801980198019802 0.009900990099009901 0.00990099009900991 0.9801980198019802 0.009900990099009901 0.00990099009900991 0.9801980198019802 0.009900990099009901 0.00990099009900991 0.9801980198019802 0.009900990099009901 0.00990099009900991 0.9801980198019802 0.009900990099009901 0.00990099009900991 0.9801980198019802 0.009900990099009901 0.00990099009900991 0.9801980198019802 0.009900990099009901 0.00990099009900991 0.9801980198019802 0.009900990099009901 0.00990099009900991 0.9801980198019802 0.009900990099009901 0.00990099009900991 0.9801980198019802 0.009900990099009901 0.00990099009900991 0.9801980198019802 0.009900990099009901 0.00990099009900991 0.9801980198019802 0.009900990099009901 0.00990099009900991 0.9801980198019802 0.009900990099009901 0.00990099009900991 0.9801980198019802 0.009900990099009901 0.00990099009900991 0.9801980198019802 0.009900990099009901 0.00990099009900991 0.9801980198019802 0.009900990099009901 0.00990099009900991 0.9801980198019802 0.009900990099009901 0.00990099009900991 0.9801980198019802 0.009900990099009901 0.00990099009900991 0.9801980198019802 0.009900990099009901 0.00990099009900991 0.9801980198019802 0.009900990099009901 0.00990099009900991 0.9801980198019802 0.009900990099009901 0.00990099009900991 0.9801980198019802 0.009900990099009901 0.00990099009900991 0.9801980198019802 0.009900990099009901 0.00990099009900991 0.9801980198019802 0.009900990099009901 0.00990099009900991 0.9801980198019802 0.009900990099009901 0.00990099009900991 0.9801980198019802 0.009900990099009901 0.00990099009900991 0.9801980198019802 0.009900990099009901 0.00990099009900991 0.9801980198019802 0.009900990099009901 0.00990099009900991 0.9801980198019802 0.009900990099009901 0.00990099009900991 0.9801980198019802 0.009900990099009901 0.00990099009900991 0.9801980198019802 0.009900990099009901 0.00990099009900991 0.9801980198019802 0.009900990099009901 0.00990099009900991 0.9801980198019802 0.009900990099009901 0.00990099009900991 0.9801980198019802 0.009900990099009901 0.00990099009900991 0.9801980198019802 0.009900990099009901 0.00990099009900991 0.9801980198019802 0.009900990099009901 0.00990099009900991 0.9801980198019802 0.009900990099009901 0.00990099009900991 0.9801980198019802 0.009900990099009901 0.00990099009900991 0.9801980198019802 0.009900990099009901 0.00990099009900991 0.9801980198019802 0.009900990099009901 0.00990099009900991 0.9801980198019802 0.009900990099009901 0.00990099009900991 0.9801980198019802 0.009900990099009901 0.00990099009900991 0.9801980198019802 0.009900990099009901 0.00990099009900991 0.9801980198019802 0.009900990099009901 0.00990099009900991 0.9801980198019802 0.009900990099009901 0.00990099009900991 0.9801980198019802 0.009900990099009901 0.00990099009900991 0.9801980198019802 0.009900990099009901 0.00990099009900991 0.9801980198019802 0.009900990099009901 0.00990099009900991 0.9801980198019802 0.009900990099009901 0.00990099009900991 0.9801980198019802 0.009900990099009901 0.00990099009900991 0.9801980198019802 0.009900990099009901 0.00990099009900991 0.9801980198019802 0.009900990099009901 0.00990099009900991 0.9801980198019802 0.009900990099009901 0.00990099009900991 0.9801980198019802 0.009900990099009901 0.00990099009900991 0.9801980198019802 0.009900990099009901 0.00990099009900991 0.9801980198019802 0.009900990099009901 0.00990099009900991 0.9801980198019802 0.009900990099009901 0.00990099009900991 0.9801980198019802 0.009900990099009901 0.00990099009900991 0.9801980198019802 0.009900990099009901 0.00990099009900991 0.9801980198019802 0.009900990099009901 0.00990099009900991 0.9801980198019802 0.009900990099009901 0.00990099009900991 0.9801980198019802 0.009900990099009901 0.00990099009900991 0.9801980198019802 0.009900990099009901 0.00990099009900991 0.9801980198019802 0.009900990099009901 0.00990099009900991 0.9801980198019802 0.009900990099009901 0.00990099009900991 0.9801980198019802 0.009900990099009901 0.00990099009900991 0.9801980198019802 0.009900990099009901 0.00990099009900991 0.9801980198019802 0.009900990099009901 0.00990099009900991 0.9801980198019802 0.009900990099009901 0.00990099009900991 0.9801980198019802 0.009900990099009901 0.00990099009900991 0.9801980198019802 0.009900990099009901 0.00990099009900991 0.9801980198019802 0.009900990099009901 0.00990099009900991 0.9801980198019802 0.009900990099009901 0.00990099009900991 0.9801980198019802 0.009900990099009901 0.00990099009900991 0.9801980198019802 0.009900990099009901 0.00990099009900991 0.9801980198019802 0.009900990099009901 0.00990099009900991 0.9801980198019802 0.009900990099009901 0.00990099009900991 0.9801980198019802 0.009900990099009901 0.00990099009900991 0.9801980198019802 0.009900990099009901 0.00990099009900991 0.9801980198019802 0.009900990099009901 0.00990099009900991 0.9801980198019802 0.009900990099009901 0.00990099009900991 0.9801980198019802 0.009900990099009901 0.00990099009900991 0.9801980198019802 0.009900990099009901 0.00990099009900991 0.9801980198019802 0.009900990099009901 0.00990099009900991 0.9801980198019802 0.009900990099009901 0.00990099009900991 0.9801980198019802 0.009900990099009901 0.00990099009900991 0.9801980198019802 0.009900990099009901 0.00990099009900991 0.9801980198019802 0.009900990099009901 0.00990099009900991 0.9801980198019802 0.009900990099009901 0.00990099009900991 0.9801980198019802 0.009900990099009901 0.00990099009900991 0.9801980198019802 0.009900990099009901 0.00990099009900991 0.9801980198019802 0.009900990099009901 0.00990099009900991 0.9801980198019802 0.009900990099009901 0.00990099009900991 0.9801980198019802 0.009900990099009901 0.00990099009900991 0.9801980198019802 0.009900990099009901 0.00990099009900991 0.9801980198019802 0.009900990099009901 0.00990099009900991 0.9801980198019802 0.009900990099009901 0.00990099009900991 0.9801980198019802 0.009900990099009901 0.00990099009900991 0.9801980198019802 0.009900990099009901 0.00990099009900991 0.9801980198019802 0.009900990099009901 0.00990099009900991 0.9801980198019802 0.009900990099009901 0.00990099009900991 0.9801980198019802 0.009900990099009901 0.00990099009900991 0.9801980198019802 0.009900990099009901 0.00990099009900991 0.9801980198019802 0.009900990099009901 0.00990099009900991 0.9801980198019802 0.009900990099009901 0.00990099009900991 0.9801980198019802 0.009900990099009901 0.00990099009900991 0.9801980198019802 0.009900990099009901 0.00990099009900991 0.9801980198019802 0.009900990099009901 0.00990099009900991 0.9801980198019802 0.009900990099009901 0.00990099009900991 0.9801980198019802 0.009900990099009901 0.00990099009900991 0.9801980198019802 0.009900990099009901 0.00990099009900991 0.9801980198019802 0.009900990099009901 0.00990099009900991 0.9801980198019802 0.009900990099009901 0.00990099009900991 0.9801980198019802 0.009900990099009901 0.00990099009900991 0.9801980198019802 0.009900990099009901 0.00990099009900991 0.9801980198019802 0.009900990099009901 0.00990099009900991 0.9801980198019802 0.009900990099009901 0.00990099009900991 0.9801980198019802 0.009900990099009901 0.00990099009900991 0.9801980198019802 0.009900990099009901 0.00990099009900991 0.9801980198019802 0.009900990099009901 0.00990099009900991 0.9801980198019802 0.009900990099009901 0.00990099009900991 0.9801980198019802 0.009900990099009901 0.00990099009900991 0.9801980198019802 0.009900990099009901 0.00990099009900991 0.9801980198019802 0.009900990099009901 0.00990099009900991 0.9801980198019802 0.009900990099009901 0.00990099009900991 0.9801980198019802 0.009900990099009901 0.00990099009900991 0.9801980198019802 0.009900990099009901 0.00990099009900991 0.9801980198019802 0.009900990099009901 0.00990099009900991 0.9801980198019802 0.009900990099009901 0.00990099009900991 0.9801980198019802 0.009900990099009901 0.00990099009900991 0.9801980198019802 0.009900990099009901 0.00990099009900991 0.9801980198019802 0.009900990099009901 0.00990099009900991 0.9801980198019802 0.009900990099009901 0.00990099009900991 0.9801980198019802 0.009900990099009901 0.00990099009900991 0.9801980198019802 0.009900990099009901 0.00990099009900991 0.9801980198019802 0.009900990099009901 0.00990099009900991 0.9801980198019802 0.009900990099009901 0.00990099009900991 0.9801980198019802 0.009900990099009901 0.00990099009900991 0.9801980198019802 0.009900990099009901 0.00990099009900991 0.9801980198019802 0.009900990099009901 0.00990099009900991 0.9801980198019802 0.009900990099009901 0.00990099009900991 0.9801980198019802 0.009900990099009901 0.00990099009900991 0.9801980198019802 0.009900990099009901 0.00990099009900991 0.9801980198019802 0.009900990099009901 0.00990099009900991 0.9801980198019802 0.009900990099009901 0.00990099009900991 0.9801980198019802 0.009900990099009901 0.00990099009900991 0.9801980198019802 0.009900990099009901 0.00990099009900991 0.9801980198019802 0.009900990099009901 0.00990099009900991 0.9801980198019802 0.009900990099009901 0.00990099009900991 0.9801980198019802 0.009900990099009901 0.00990099009900991 0.9801980198019802 0.009900990099009901 0.00990099009900991 0.9801980198019802 0.009900990099009901 0.00990099009900991 0.9801980198019802 0.009900990099009901 0.00990099009900991 0.9801980198019802 0.009900990099009901 0.00990099009900991 0.9801980198019802 0.009900990099009901 0.00990099009900991 0.9801980198019802 0.009900990099009901 0.00990099009900991 0.9801980198019802 0.009900990099009901 0.00990099009900991 0.9801980198019802 0.009900990099009901 0.00990099009900991 0.9801980198019802 0.009900990099009901 0.00990099009900991 0.9801980198019802 0.009900990099009901 0.00990099009900991 0.9801980198019802 0.009900990099009901 0.00990099009900991 0.9801980198019802 0.009900990099009901 0.00990099009900991 0.9801980198019802 0.009900990099009901 0.00990099009900991 0.9801980198019802 0.009900990099009901 0.00990099009900991 0.9801980198019802 0.009900990099009901 0.00990099009900991 0.9801980198019802 0.009900990099009901 0.00990099009900991 0.9801980198019802 0.009900990099009901 0.00990099009900991 0.9801980198019802 0.009900990099009901 0.00990099009900991 0.9801980198019802 0.009900990099009901 0.00990099009900991 0.9801980198019802 0.009900990099009901 0.00990099009900991 0.9801980198019802 0.009900990099009901 0.00990099009900991 0.9801980198019802 0.009900990099009901 0.00990099009900991 0.9801980198019802 0.009900990099009901 0.00990099009900991 0.9801980198019802 0.009900990099009901 0.00990099009900991 0.9801980198019802 0.009900990099009901 0.00990099009900991 0.9801980198019802 0.009900990099009901 0.00990099009900991 0.9801980198019802 0.009900990099009901 0.00990099009900991 0.9801980198019802 0.009900990099009901 0.00990099009900991 0.9801980198019802 0.009900990099009901 0.00990099009900991 0.9801980198019802 0.009900990099009901 0.00990099009900991 0.9801980198019802 0.009900990099009901 0.00990099009900991 0.9801980198019802 0.009900990099009901 0.00990099009900991 0.9801980198019802 0.009900990099009901 0.00990099009900991 0.9801980198019802 0.009900990099009901 0.00990099009900991 0.9801980198019802 0.009900990099009901 0.00990099009900991 0.9801980198019802 0.009900990099009901 0.00990099009900991 0.9801980198019802 0.009900990099009901 0.00990099009900991 0.9801980198019802 0.009900990099009901 0.00990099009900991 0.9801980198019802 0.009900990099009901 0.00990099009900991 0.9801980198019802 0.009900990099009901 0.00990099009900991 0.9801980198019802 0.009900990099009901 0.00990099009900991 0.9801980198019802 0.009900990099009901 0.00990099009900991 0.9801980198019802 0.009900990099009901 0.00990099009900991 0.9801980198019802 0.009900990099009901 0.00990099009900991 0.9801980198019802 0.009900990099009901 0.00990099009900991 0.9801980198019802 0.009900990099009901 0.00990099009900991 0.9801980198019802 0.009900990099009901 0.00990099009900991 0.9801980198019802 0.009900990099009901 0.00990099009900991 0.9801980198019802 0.009900990099009901 0.00990099009900991 0.9801980198019802 0.009900990099009901 0.00990099009900991 0.9801980198019802 0.009900990099009901 0.00990099009900991 0.9801980198019802 0.009900990099009901 0.00990099009900991 0.9801980198019802 0.009900990099009901 0.00990099009900991 0.9801980198019802 0.009900990099009901 0.00990099009900991 0.9801980198019802 0.009900990099009901 0.00990099009900991 0.9801980198019802 0.009900990099009901 0.00990099009900991 0.9801980198019802 0.009900990099009901 0.00990099009900991 0.9801980198019802 0.009900990099009901 0.00990099009900991 0.9801980198019802 0.009900990099009901 0.00990099009900991 0.9801980198019802 0.009900990099009901 0.00990099009900991 0.9801980198019802 0.009900990099009901 0.00990099009900991 0.9801980198019802 0.009900990099009901 0.00990099009900991 0.9801980198019802 0.009900990099009901 0.00990099009900991 0.9801980198019802 0.009900990099009901 0.00990099009900991 0.9801980198019802 0.009900990099009901 0.00990099009900991 0.9801980198019802 0.009900990099009901 0.00990099009900991 0.9801980198019802 0.009900990099009901 0.00990099009900991 0.9801980198019802 0.009900990099009901 0.00990099009900991 0.9801980198019802 0.009900990099009901 0.00990099009900991 0.9801980198019802 0.009900990099009901 0.00990099009900991 0.9801980198019802 0.009900990099009901 0.00990099009900991 0.9801980198019802 0.009900990099009901 0.00990099009900991 0.9801980198019802 0.009900990099009901 0.00990099009900991 0.9801980198019802 0.009900990099009901 0.00990099009900991 0.9801980198019802 0.009900990099009901 0.00990099009900991 0.9801980198019802 0.009900990099009901 0.00990099009900991 0.9801980198019802 0.009900990099009901 0.00990099009900991 0.9801980198019802 0.009900990099009901 0.00990099009900991 0.9801980198019802 0.009900990099009901 0.00990099009900991 0.9801980198019802 0.009900990099009901 0.00990099009900991 0.9801980198019802 0.009900990099009901 0.00990099009900991 0.9801980198019802 0.009900990099009901 0.00990099009900991 0.9801980198019802 0.009900990099009901 0.00990099009900991 0.9801980198019802 0.009900990099009901 0.00990099009900991 0.9801980198019802 0.009900990099009901 0.00990099009900991 0.9801980198019802 0.009900990099009901 0.00990099009900991 0.9801980198019802 0.009900990099009901 0.00990099009900991 0.9801980198019802 0.009900990099009901 0.00990099009900991 0.9801980198019802 0.009900990099009901 0.00990099009900991 0.9801980198019802 0.009900990099009901 0.00990099009900991 0.9801980198019802 0.009900990099009901 0.00990099009900991 0.9801980198019802 0.009900990099009901 0.00990099009900991 0.9801980198019802 0.009900990099009901 0.00990099009900991 0.9801980198019802 0.009900990099009901 0.00990099009900991 0.9801980198019802 0.009900990099009901 0.00990099009900991 0.9801980198019802 0.009900990099009901 0.00990099009900991 0.9801980198019802 0.009900990099009901 0.00990099009900991 0.9801980198019802 0.009900990099009901 0.00990099009900991 0.9801980198019802 0.009900990099009901 0.00990099009900991 0.9801980198019802 0.009900990099009901 0.00990099009900991 0.9801980198019802 0.009900990099009901 0.00990099009900991 0.9801980198019802 0.009900990099009901 0.00990099009900991 0.9801980198019802 0.009900990099009901 0.00990099009900991 0.9801980198019802 0.009900990099009901 0.00990099009900991 0.9801980198019802 0.009900990099009901 0.00990099009900991 0.9801980198019802 0.009900990099009901 0.00990099009900991 0.9801980198019802 0.009900990099009901 0.00990099009900991 0.9801980198019802 0.009900990099009901 0.00990099009900991 0.9801980198019802 0.009900990099009901 0.00990099009900991 0.9801980198019802 0.009900990099009901 0.00990099009900991 0.9801980198019802 0.009900990099009901 0.00990099009900991 0.9801980198019802 0.009900990099009901 0.00990099009900991 0.9801980198019802 0.009900990099009901 0.00990099009900991 0.9801980198019802 0.009900990099009901 0.00990099009900991 0.9801980198019802 0.009900990099009901 0.00990099009900991 0.9801980198019802 0.009900990099009901 0.00990099009900991 0.9801980198019802 0.009900990099009901 0.00990099009900991 0.9801980198019802 0.009900990099009901 0.00990099009900991 0.9801980198019802 0.009900990099009901 0.00990099009900991 0.9801980198019802 0.009900990099009901 0.00990099009900991 0.9801980198019802 0.009900990099009901 0.00990099009900991 0.9801980198019802 0.009900990099009901 0.00990099009900991 0.9801980198019802 0.009900990099009901 0.00990099009900991 0.9801980198019802 0.009900990099009901 0.00990099009900991 0.9801980198019802 0.009900990099009901 0.00990099009900991 0.9801980198019802 0.009900990099009901 0.00990099009900991 0.9801980198019802 0.009900990099009901 0.00990099009900991 0.9801980198019802 0.009900990099009901 0.00990099009900991 0.9801980198019802 0.009900990099009901 0.00990099009900991 0.9801980198019802 0.009900990099009901 0.00990099009900991 0.9801980198019802 0.009900990099009901 0.00990099009900991 0.9801980198019802 0.009900990099009901 0.00990099009900991 0.9801980198019802 0.009900990099009901 0.00990099009900991 0.9801980198019802 0.009900990099009901 0.00990099009900991 0.9801980198019802 0.009900990099009901 0.00990099009900991 0.9801980198019802 0.009900990099009901 0.00990099009900991 0.9801980198019802 0.009900990099009901 0.00990099009900991 0.9801980198019802 0.009900990099009901 0.00990099009900991 0.9801980198019802 0.009900990099009901 0.00990099009900991 0.9801980198019802 0.009900990099009901 0.00990099009900991 0.9801980198019802 0.009900990099009901 0.00990099009900991 0.9801980198019802 0.009900990099009901 0.00990099009900991 0.9801980198019802 0.009900990099009901 0.00990099009900991 0.9801980198019802 0.009900990099009901 0.00990099009900991 0.9801980198019802 0.009900990099009901 0.00990099009900991 0.9801980198019802 0.009900990099009901 0.00990099009900991 0.9801980198019802 0.009900990099009901 0.00990099009900991 0.9801980198019802 0.009900990099009901 0.00990099009900991 0.9801980198019802 0.009900990099009901 0.00990099009900991 0.9801980198019802 0.009900990099009901 0.00990099009900991 0.9801980198019802 0.009900990099009901 0.00990099009900991 0.9801980198019802 0.009900990099009901 0.00990099009900991 0.9801980198019802 0.009900990099009901 0.00990099009900991 0.9801980198019802 0.009900990099009901 0.00990099009900991 0.9801980198019802 0.009900990099009901 0.00990099009900991 0.9801980198019802 0.009900990099009901 0.00990099009900991 0.9801980198019802 0.009900990099009901 0.00990099009900991 0.9801980198019802 0.009900990099009901 0.00990099009900991 0.9801980198019802 0.009900990099009901 0.00990099009900991 0.9801980198019802 0.009900990099009901 0.00990099009900991 0.9801980198019802 0.009900990099009901 0.00990099009900991 0.9801980198019802 0.009900990099009901 0.00990099009900991 0.9801980198019802 0.009900990099009901 0.00990099009900991 0.9801980198019802 0.009900990099009901 0.00990099009900991 0.9801980198019802 0.009900990099009901 0.00990099009900991 0.9801980198019802 0.009900990099009901 0.00990099009900991 0.9801980198019802 0.009900990099009901 0.00990099009900991 0.9801980198019802 0.009900990099009901 0.00990099009900991 0.9801980198019802 0.009900990099009901 0.00990099009900991 0.9801980198019802 0.009900990099009901 0.00990099009900991 0.9801980198019802 0.009900990099009901 0.00990099009900991 0.9801980198019802 0.009900990099009901 0.00990099009900991 0.9801980198019802 0.009900990099009901 0.00990099009900991 0.9801980198019802 0.009900990099009901 0.00990099009900991 0.9801980198019802 0.009900990099009901 0.00990099009900991 0.9801980198019802 0.009900990099009901 0.00990099009900991 0.9801980198019802 0.009900990099009901 0.00990099009900991 0.9801980198019802 0.009900990099009901 0.00990099009900991 0.9801980198019802 0.009900990099009901 0.00990099009900991 0.9801980198019802 0.009900990099009901 0.00990099009900991 0.9801980198019802 0.009900990099009901 0.00990099009900991 0.9801980198019802 0.009900990099009901 0.00990099009900991 0.9801980198019802 0.009900990099009901 0.00990099009900991 0.9801980198019802 0.009900990099009901 0.00990099009900991 0.9801980198019802 0.009900990099009901 0.00990099009900991 0.9801980198019802 0.009900990099009901 0.00990099009900991 0.9801980198019802 0.009900990099009901 0.00990099009900991 0.9801980198019802 0.009900990099009901 0.00990099009900991 0.9801980198019802 0.009900990099009901 0.00990099009900991 0.9801980198019802 0.009900990099009901 0.00990099009900991 0.9801980198019802 0.009900990099009901 0.00990099009900991 0.9801980198019802 0.009900990099009901 0.00990099009900991 0.9801980198019802 0.009900990099009901 0.00990099009900991 0.9801980198019802 0.009900990099009901 0.00990099009900991 0.9801980198019802 0.009900990099009901 0.00990099009900991 0.9801980198019802 0.009900990099009901 0.00990099009900991 0.9801980198019802 0.009900990099009901 0.00990099009900991 0.9801980198019802 0.009900990099009901 0.00990099009900991 0.9801980198019802 0.009900990099009901 0.00990099009900991 0.9801980198019802 0.009900990099009901 0.00990099009900991 0.9801980198019802 0.009900990099009901 0.00990099009900991 0.9801980198019802 0.009900990099009901 0.00990099009900991 0.9801980198019802 0.009900990099009901 0.00990099009900991 0.9801980198019802 0.009900990099009901 0.00990099009900991 0.9801980198019802 0.009900990099009901 0.00990099009900991 0.9801980198019802 0.009900990099009901 0.00990099009900991 0.9801980198019802 0.009900990099009901 0.00990099009900991 0.9801980198019802 0.009900990099009901 0.00990099009900991 0.9801980198019802 0.009900990099009901 0.00990099009900991 0.9801980198019802 0.009900990099009901 0.00990099009900991 0.9801980198019802 0.009900990099009901 0.00990099009900991 0.9801980198019802 0.009900990099009901 0.00990099009900991 0.9801980198019802 0.009900990099009901 0.00990099009900991 0.9801980198019802 0.009900990099009901 0.00990099009900991 0.9801980198019802 0.009900990099009901 0.00990099009900991 0.9801980198019802 0.009900990099009901 0.00990099009900991 0.9801980198019802 0.009900990099009901 0.00990099009900991 0.9801980198019802 0.009900990099009901 0.00990099009900991 0.9801980198019802 0.009900990099009901 0.00990099009900991 0.9801980198019802 0.009900990099009901 0.00990099009900991 0.9801980198019802 0.009900990099009901 0.00990099009900991 0.9801980198019802 0.009900990099009901 0.00990099009900991 0.9801980198019802 0.009900990099009901 0.00990099009900991 0.9801980198019802 0.009900990099009901 0.00990099009900991 0.9801980198019802 0.009900990099009901 0.00990099009900991 0.9801980198019802 0.009900990099009901 0.00990099009900991 0.9801980198019802 0.009900990099009901 0.00990099009900991 0.9801980198019802 0.009900990099009901 0.00990099009900991 0.9801980198019802 0.009900990099009901 0.00990099009900991 0.9801980198019802 0.009900990099009901 0.00990099009900991 0.9801980198019802 0.009900990099009901 0.00990099009900991 0.9801980198019802 0.009900990099009901 0.00990099009900991 0.9801980198019802 0.009900990099009901 0.00990099009900991 0.9801980198019802 0.009900990099009901 0.00990099009900991 0.9801980198019802 0.009900990099009901 0.00990099009900991 0.9801980198019802 0.009900990099009901 0.00990099009900991 0.9801980198019802 0.009900990099009901 0.00990099009900991 0.9801980198019802 0.009900990099009901 0.00990099009900991 0.9801980198019802 0.009900990099009901 0.00990099009900991 0.9801980198019802 0.009900990099009901 0.00990099009900991 0.9801980198019802 0.009900990099009901 0.00990099009900991 0.9801980198019802 0.009900990099009901 0.00990099009900991 0.9801980198019802 0.009900990099009901 0.00990099009900991 0.9801980198019802 0.009900990099009901 0.00990099009900991 0.9801980198019802 0.009900990099009901 0.00990099009900991 0.9801980198019802 0.009900990099009901 0.00990099009900991 0.9801980198019802 0.009900990099009901 0.00990099009900991 0.9801980198019802 0.009900990099009901 0.00990099009900991 0.9801980198019802 0.009900990099009901 0.00990099009900991 0.9801980198019802 0.009900990099009901 0.00990099009900991 0.9801980198019802 0.009900990099009901 0.00990099009900991 0.9801980198019802 0.009900990099009901 0.00990099009900991 0.9801980198019802 0.009900990099009901 0.00990099009900991 0.9801980198019802 0.009900990099009901 0.00990099009900991 0.9801980198019802 0.009900990099009901 0.00990099009900991 0.9801980198019802 0.009900990099009901 0.00990099009900991 0.9801980198019802 0.009900990099009901 0.00990099009900991 0.9801980198019802 0.009900990099009901 0.00990099009900991 0.9801980198019802 0.009900990099009901 0.00990099009900991 0.9801980198019802 0.009900990099009901 0.00990099009900991 0.9801980198019802 0.009900990099009901 0.00990099009900991 0.9801980198019802 0.009900990099009901 0.00990099009900991 0.9801980198019802 0.009900990099009901 0.00990099009900991 0.9801980198019802 0.009900990099009901 0.00990099009900991 0.9801980198019802 0.009900990099009901 0.00990099009900991 0.9801980198019802 0.009900990099009901 0.00990099009900991 0.9801980198019802 0.009900990099009901 0.00990099009900991 0.9801980198019802 0.009900990099009901 0.00990099009900991 0.9801980198019802 0.009900990099009901 0.00990099009900991 0.9801980198019802 0.009900990099009901 0.00990099009900991 0.9801980198019802 0.009900990099009901 0.00990099009900991 0.9801980198019802 0.009900990099009901 0.00990099009900991 0.9801980198019802 0.009900990099009901 0.00990099009900991 0.9801980198019802 0.009900990099009901 0.00990099009900991 0.9801980198019802 0.009900990099009901 0.00990099009900991 0.9801980198019802 0.009900990099009901 0.00990099009900991 0.9801980198019802 0.009900990099009901 0.00990099009900991 0.9801980198019802 0.009900990099009901 0.00990099009900991 0.9801980198019802 0.009900990099009901 0.00990099009900991 0.9801980198019802 0.009900990099009901 0.00990099009900991 0.9801980198019802 0.009900990099009901 0.00990099009900991 0.9801980198019802 0.009900990099009901 0.00990099009900991 0.9801980198019802 0.009900990099009901 0.00990099009900991 0.9801980198019802 0.009900990099009901 0.00990099009900991 0.9801980198019802 0.009900990099009901 0.00990099009900991 0.9801980198019802 0.009900990099009901 0.00990099009900991 0.9801980198019802 0.009900990099009901 0.00990099009900991 0.9801980198019802 0.009900990099009901 0.00990099009900991 0.9801980198019802 0.009900990099009901 0.00990099009900991 0.9801980198019802 0.009900990099009901 0.00990099009900991 0.9801980198019802 0.009900990099009901 0.00990099009900991 0.9801980198019802 0.009900990099009901 0.00990099009900991 0.9801980198019802 0.009900990099009901 0.00990099009900991 0.9801980198019802 0.009900990099009901 0.00990099009900991 0.9801980198019802 0.009900990099009901 0.00990099009900991 0.9801980198019802 0.009900990099009901 0.00990099009900991 0.9801980198019802 0.009900990099009901 0.00990099009900991 0.9801980198019802 0.009900990099009901 0.00990099009900991 0.9801980198019802 0.009900990099009901 0.00990099009900991 0.9801980198019802 0.009900990099009901 0.00990099009900991 0.9801980198019802 0.009900990099009901 0.00990099009900991 0.9801980198019802 0.009900990099009901 0.00990099009900991 0.9801980198019802 0.009900990099009901 0.00990099009900991 0.9801980198019802 0.009900990099009901 0.00990099009900991 0.9801980198019802 0.009900990099009901 0.00990099009900991 0.9801980198019802 0.009900990099009901 0.00990099009900991 0.9801980198019802 0.009900990099009901 0.00990099009900991 0.9801980198019802 0.009900990099009901 0.00990099009900991 0.9801980198019802 0.009900990099009901 0.00990099009900991 0.9801980198019802 0.009900990099009901 0.00990099009900991 0.9801980198019802 0.009900990099009901 0.00990099009900991 0.9801980198019802 0.009900990099009901 0.00990099009900991 0.9801980198019802 0.009900990099009901 0.00990099009900991 0.9801980198019802 0.009900990099009901 0.00990099009900991 0.9801980198019802 0.009900990099009901 0.00990099009900991 0.9801980198019802 0.009900990099009901 0.00990099009900991 0.9801980198019802 0.009900990099009901 0.00990099009900991 0.9801980198019802 0.009900990099009901 0.00990099009900991 0.9801980198019802 0.009900990099009901 0.00990099009900991 0.9801980198019802 0.009900990099009901 0.00990099009900991 0.9801980198019802 0.009900990099009901 0.00990099009900991 0.9801980198019802 0.009900990099009901 0.00990099009900991 0.9801980198019802 0.009900990099009901 0.00990099009900991 0.9801980198019802 0.009900990099009901 0.00990099009900991 0.9801980198019802 0.009900990099009901 0.00990099009900991 0.9801980198019802 0.009900990099009901 0.00990099009900991 0.9801980198019802 0.009900990099009901 0.00990099009900991 0.9801980198019802 0.009900990099009901 0.00990099009900991 0.9801980198019802 0.009900990099009901 0.00990099009900991 0.9801980198019802 0.009900990099009901 0.00990099009900991 0.9801980198019802 0.009900990099009901 0.00990099009900991 0.9801980198019802 0.009900990099009901 0.00990099009900991 0.9801980198019802 0.009900990099009901 0.00990099009900991 0.9801980198019802 0.009900990099009901 0.00990099009900991 0.9801980198019802 0.009900990099009901 0.00990099009900991 0.9801980198019802 0.009900990099009901 0.00990099009900991 0.9801980198019802 0.009900990099009901 0.00990099009900991 0.9801980198019802 0.009900990099009901 0.00990099009900991 0.9801980198019802 0.009900990099009901 0.00990099009900991 0.9801980198019802 0.009900990099009901 0.00990099009900991 0.9801980198019802 0.009900990099009901 0.00990099009900991 0.9801980198019802 0.009900990099009901 0.00990099009900991 0.9801980198019802 0.009900990099009901 0.00990099009900991 0.9801980198019802 0.009900990099009901 0.00990099009900991 0.9801980198019802 0.009900990099009901 0.00990099009900991 0.9801980198019802 0.009900990099009901 0.00990099009900991 0.9801980198019802 0.009900990099009901 0.00990099009900991 0.9801980198019802 0.009900990099009901 0.00990099009900991 0.9801980198019802 0.009900990099009901 0.00990099009900991 0.9801980198019802 0.009900990099009901 0.00990099009900991 0.9801980198019802 0.009900990099009901 0.00990099009900991 0.9801980198019802 0.009900990099009901 0.00990099009900991 0.9801980198019802 0.009900990099009901 0.00990099009900991 0.9801980198019802 0.009900990099009901 0.00990099009900991 